tree
version=v4
num_class=1
num_tree_per_iteration=1
label_index=0
max_feature_idx=21
objective=binary sigmoid:1
feature_names=gender SeniorCitizen Partner Dependents tenure PhoneService MultipleLines InternetService OnlineSecurity OnlineBackup DeviceProtection TechSupport StreamingTV StreamingMovies Contract PaperlessBilling PaymentMethod MonthlyCharges TotalCharges tenure-binned MonthlyCharges-binned TotalCharges-binned
feature_infos=[0:1] [0:1] [0:1] [0:1] [-0.63043478260869568:0.93478260869565222] [0:1] [0:2] [0:2] [0:2] [0:2] [0:2] [0:2] [0:2] [0:2] [0:2] [0:1] [0:3] [-0.95882217621348065:0.88796871405567057] [-0.40634603900549099:2.1199659175320797] [0:2] [0:2] [0:2]
tree_sizes=1701 1436 1700 1018 1672 1403 955 1519 1694 1301 1407 1251 1479 998 1377 1962 1293 998 1101 1073 1681 898 1348 1258 1682 1868 1015 765 1027 1519 805 796 1103 710 1068 1556 713 1134 1189 1682 1084 1386 1498 1097 711 1291 1481 917 729 1043 1025 926 1555 920 946 1384 914 1378 816 825 625 760 628 751 836 841 754 842 755 849 547 853 758 851 759 853 848 757 843 758 841 758 839 756 841 841 756 839 759 841 753 839 843 760 841 761 838 840 761 841 759 840 759 842 760 841 759 843 840 759 843 759 843 759 842 841 759 842 758 842 756 842 760 841 761 842 843 760 842 760 838 761 842 842 760 843 840 759 842 760 760 840 761 841 761 842 841 843 760 736 740 736 735 741 740 738 739 739 740 548 738 549 547 636 549 637 549 829

Tree=0
num_leaves=15
num_cat=0
split_feature=8 4 7 4 7 4 11 4 4 15 11 11 20 4
split_gain=554.106 311.308 78.4472 48.8482 42.381 31.7784 31.0146 18.3979 12.3238 5.21698 1.09628 0.892421 0.861441 0.81033
threshold=1.0000000180025095e-35 -0.27173913043478254 1.0000000180025095e-35 -0.55434782608695643 1.0000000180025095e-35 0.44565217391304351 1.0000000180025095e-35 1.0000000180025095e-35 -0.48913043478260865 1.0000000180025095e-35 1.5000000000000002 1.5000000000000002 1.5000000000000002 -0.59782608695652162
decision_type=2 2 2 2 2 2 2 2 2 2 2 2 2 2
left_child=1 2 8 13 -3 9 7 12 -1 -6 -11 -7 -5 -2
right_child=3 4 -4 6 5 11 -8 -9 -10 10 -12 -13 -14 -15
leaf_value=-0.84038028674541332 -0.98736073073728792 -1.1281985305904645 -0.60263736060596607 -0.97172018830412721 -1.0189412591255942 -1.0189412591255942 -1.2216339181481408 -1.1324058349778334 -1.0189412591255942 -0.84919208231413423 -1.0189412591255942 -1.0672181836511436 -1.0189412591255942 -1.0189412591255942
leaf_weight=56.516585350036621 29.23271656036377 85.749301910400391 138.17330694198608 17.539629936218262 22.216864585876465 41.900227069854736 328.96550369262695 76.784602165222168 31.766218662261963 65.871054649353027 21.437325477600098 30.40202522277832 22.80151891708374 18.903823375701904
leaf_count=290 150 440 709 90 114 215 1688 394 163 338 110 156 117 97
internal_value=-1.01894 -0.870996 -0.702379 -1.16683 -1.01894 -0.962865 -1.18767 -1.072 -0.893182 -0.893817 -0.871791 -1.04368 -1 -1.01253
internal_weight=0 494.033 226.456 494.228 267.577 181.827 446.091 117.126 88.2828 109.525 87.3084 72.3023 40.3411 48.1365
internal_count=5071 2535 1162 2536 1373 933 2289 601 453 562 448 371 207 247
is_linear=0
shrinkage=1


Tree=1
num_leaves=13
num_cat=0
split_feature=11 4 4 4 4 16 20 10 4 10 16 4
split_gain=384.599 170.207 44.4087 23.8307 11.3315 8.24459 6.42652 4.36108 7.14258 12.4878 2.99371 0.117461
threshold=1.0000000180025095e-35 -0.076086956521739121 -0.27173913043478254 -0.40217391304347822 0.66304347826086973 1.5000000000000002 1.0000000180025095e-35 1.0000000180025095e-35 -0.59782608695652162 1.5000000000000002 1.5000000000000002 0.25000000000000006
decision_type=2 2 2 2 2 2 2 2 2 2 2 2
left_child=1 3 7 -1 10 -5 -4 -2 -9 -10 11 -3
right_child=2 4 6 5 -6 -7 -8 8 9 -11 -12 -13
leaf_value=0.26099990467944278 0.015329094982376952 0 -0.083752794248097881 0 -0.086997996229462055 0.13286175829116212 -0.19837454559484008 0 -0.12649794851046839 0 0.037821103194870816 -0.011866179153790376
leaf_weight=196.82006229460239 34.120097830891609 27.804677397012711 112.13949099183083 34.84786681830883 57.711576342582703 72.142447263002396 227.50825129449368 25.36424320936203 55.064671069383621 16.079837277531624 79.613610476255417 41.872109174728394
leaf_count=903 169 142 612 171 306 347 1280 128 307 80 407 219
internal_value=0 0.117885 -0.12967 0.211737 -0.0124435 0.0962089 -0.167917 -0.0134032 -0.0429331 -0.0784583 0.00567788 -0.0051332
internal_weight=0 510.812 470.277 303.81 207.002 106.99 339.648 130.629 96.5088 71.1445 149.29 69.6768
internal_count=5071 2495 2576 1421 1074 518 1892 684 515 387 768 361
is_linear=0
shrinkage=0.198533


Tree=2
num_leaves=16
num_cat=0
split_feature=8 4 4 17 17 16 4 17 17 4 18 4 17 18 11
split_gain=278.478 96.3667 37.0201 30.5493 18.6416 16.9482 12.3402 8.67317 7.96894 6.93849 3.5956 2.56262 0.41649 0.00509095 0.00416776
threshold=1.0000000180025095e-35 -0.076086956521739121 -0.14130434782608695 -0.046008741660915571 0.15504945939728559 1.5000000000000002 -0.55434782608695643 0.21210029905682079 0.42097998619737759 -0.53260869565217372 0.99707968597521013 0.44565217391304351 -0.56958822176213475 -0.39912900359759373 1.5000000000000002
decision_type=2 2 2 2 2 2 2 2 2 2 2 2 2 2 2
left_child=1 3 4 9 6 11 13 -7 -4 -1 -9 14 -8 -2 -3
right_child=2 5 8 -5 -6 7 12 10 -10 -11 -12 -13 -14 -15 -16
leaf_value=0.094531969311306308 0.0026346632974061481 0 -0.186443415793139 0.20876113988124378 0.11571334448554738 0 -0.12622122953432921 0.12675963933415044 -0.049150688650928115 0 0 -0.092819059846914978 0 0 -0.002643792287574903
leaf_weight=54.379258707165718 23.92865177989006 30.172464296221733 216.43844869732857 214.09401652216911 19.280817031860352 35.600176975131035 56.803123220801353 38.663692459464073 68.929828003048897 54.060166493058205 26.382163107395172 59.10289303958416 29.026664793491364 20.66595733165741 18.523358702659607
leaf_count=239 121 151 1323 922 96 194 345 190 396 268 140 326 150 105 105
internal_value=0 0.0946628 -0.118445 0.162048 -0.021508 -0.0018613 -0.059632 0.0453963 -0.161375 0.0475983 0.0893893 -0.0632436 -0.10324 0 0
internal_weight=0 530.978 435.073 322.533 149.705 208.445 130.424 100.646 285.368 108.439 65.0459 107.799 85.8298 44.5946 48.6958
internal_count=5071 2535 2536 1429 817 1106 721 524 1719 507 330 582 495 226 256
is_linear=0
shrinkage=0.198533


Tree=3
num_leaves=9
num_cat=0
split_feature=14 15 3 4 4 4 13 20
split_gain=376.571 36.2352 11.2513 4.0955 3.93754 2.33362 1.57764 1.08687
threshold=1.0000000180025095e-35 1.0000000180025095e-35 1.0000000180025095e-35 -0.59782608695652162 0.55434782608695665 0.076086956521739149 1.5000000000000002 1.5000000000000002
decision_type=2 2 2 2 2 2 2 2
left_child=1 3 4 -1 -3 -4 7 -5
right_child=-2 2 5 6 -6 -7 -8 -9
leaf_value=0.063454283530160985 -0.16019541130171527 0.15316633102470908 0.045506793536789367 -0.033099749657267717 0 0 0.025980578969894697 0
leaf_weight=40.974140733480453 362.13311021029949 310.65795980393887 49.195125505328178 64.154483452439308 19.954884216189384 18.637520551681519 38.39968067407608 42.721675217151642
leaf_count=185 2280 1416 232 356 112 99 183 208
internal_value=0 0.0958877 0.130081 0.0111097 0.146978 0.0166591 0 -0.017151
internal_weight=0 584.695 398.445 186.25 330.613 67.8326 145.276 106.876
internal_count=5071 2791 1859 932 1528 331 747 564
is_linear=0
shrinkage=0.198533


Tree=4
num_leaves=16
num_cat=0
split_feature=4 7 7 20 4 18 18 1 13 12 3 4 20 18 18
split_gain=109.664 50.0114 38.128 37.8953 20.358 11.49 7.54033 6.93687 5.95443 4.2578 2.79769 2.21548 0.961687 0.533689 0.00351709
threshold=-0.14130434782608695 1.5000000000000002 1.0000000180025095e-35 1.0000000180025095e-35 0.66304347826086973 -0.39912900359759373 -0.34855877769200511 1.0000000180025095e-35 1.5000000000000002 1.5000000000000002 1.0000000180025095e-35 -0.33695652173913038 1.5000000000000002 0.005214326288652313 -0.13688334765573787
decision_type=2 2 2 2 2 2 2 2 2 2 2 2 2 2 2
left_child=1 2 6 4 8 -3 -1 -5 -2 -10 -11 -4 -8 -13 -14
right_child=3 5 11 7 -6 -7 12 -9 9 10 -12 13 14 -15 -16
leaf_value=0.063481014282165737 0 0 0.17131866751395966 -0.13400550194897032 -0.080344718090375231 -0.10921707435238684 0 0 0 0.10534492991781558 0 0 -0.040595291723528472 0.056462063657649747 0
leaf_weight=66.587239772081375 26.323264107108116 24.270246908068657 171.88024617731571 220.59776058793068 82.024081707000732 57.717583909630775 43.872320666909218 32.648915067315102 18.705465629696846 62.925909459590912 17.601803287863731 20.525252312421799 29.533033922314644 34.313227295875549 15.924757882952688
leaf_count=284 140 119 697 1529 528 385 213 194 98 322 97 86 143 150 86
internal_value=0 0.065889 0.0978984 -0.0700194 0 -0.0582405 0.00789456 -0.120947 0.0429491 0.0675475 0.0867379 0.149921 -0.0141307 0.0417422 -0.0335396
internal_weight=0 464.624 382.636 460.827 207.581 81.9878 155.917 253.247 125.556 99.2332 80.5277 226.719 89.3301 54.8385 45.4578
internal_count=5071 2163 1659 2908 1185 504 726 1723 657 517 419 933 442 236 229
is_linear=0
shrinkage=0.198533


Tree=5
num_leaves=13
num_cat=0
split_feature=14 6 18 3 9 13 14 13 18 18 18 13
split_gain=218.716 20.7596 12.0831 9.54439 5.62528 1.82155 14.4182 0.163642 0.411217 0.0569934 0.00703259 0.00162834
threshold=1.0000000180025095e-35 1.0000000180025095e-35 -0.34855877769200511 1.0000000180025095e-35 1.0000000180025095e-35 1.5000000000000002 1.5000000000000002 1.5000000000000002 -0.0036631370435643647 -0.30627612625078277 -0.39750498856635147 1.5000000000000002
decision_type=2 2 2 2 2 2 2 2 2 2 2 2
left_child=1 2 4 -3 -1 -2 -7 8 9 -4 -6 -5
right_child=5 3 7 11 10 6 -8 -9 -10 -11 -12 -13
leaf_value=0.10401870650500288 -0.17227574405795779 0.12614650036999525 0 0 0.0031706543607522802 0 -0.13812368309295828 0 0 -0.019458713849615686 0 0.0015525461677063672
leaf_weight=75.289435997605324 158.39965195208788 236.30436203628778 26.363848149776459 29.245079629123211 22.593849346041679 73.375164315104485 78.694210097193718 62.439876601099968 28.3787692040205 60.823454082012177 29.821113884449005 21.647834554314613
leaf_count=309 1244 1088 131 150 110 466 570 279 152 297 169 106
internal_value=0 0.0686241 0.0234278 0.108874 0.0698181 -0.135657 -0.0809071 -0.000244175 -0.00732103 -0.0156831 0 0
internal_weight=0 592.908 305.71 287.197 127.704 310.469 152.069 178.006 115.566 87.1873 52.415 50.8929
internal_count=5071 2791 1447 1344 588 2280 1036 859 580 428 279 256
is_linear=0
shrinkage=0.198533


Tree=6
num_leaves=8
num_cat=0
split_feature=14 7 7 20 14 9 15
split_gain=158.537 23.8771 22.0274 2.66587 2.14556 0.858571 0.264078
threshold=1.0000000180025095e-35 1.0000000180025095e-35 1.5000000000000002 1.5000000000000002 1.5000000000000002 1.5000000000000002 1.0000000180025095e-35
decision_type=2 2 2 2 2 2 2
left_child=1 3 6 5 -2 -1 -3
right_child=4 2 -4 -5 -6 -7 -8
leaf_value=0.024486968734396607 -0.0686167155750112 0.027404975615184676 -0.00095368687332677475 -0.033131865501355419 -0.15980922067323086 0 0.11202504883435288
leaf_weight=89.695612631738186 143.01404587179422 72.17813578248024 61.05110626667738 69.856909841299057 142.27618092298508 22.042912028729916 284.87409932911396
leaf_count=405 1046 324 371 353 1234 104 1234
internal_value=0 0.055697 0.0815972 0 -0.12274 0.0140155 0.100891
internal_weight=0 599.699 418.103 181.595 285.29 111.739 357.052
internal_count=5071 2791 1929 862 2280 509 1558
is_linear=0
shrinkage=0.198533


Tree=7
num_leaves=14
num_cat=0
split_feature=14 11 18 20 12 20 14 4 18 18 16 16 20
split_gain=112.443 16.4741 9.69218 12.5938 3.20572 2.62865 3.49074 1.10249 1.13792 1.67172 0.825783 2.97066 0.252401
threshold=1.0000000180025095e-35 1.0000000180025095e-35 -0.37527127605342486 1.0000000180025095e-35 1.5000000000000002 1.0000000180025095e-35 1.5000000000000002 -0.24999999999999997 -0.32861179486432551 -0.39912900359759373 2.5000000000000004 1.5000000000000002 1.0000000180025095e-35
decision_type=2 2 2 2 2 2 2 2 2 2 2 2 2
left_child=1 2 -1 4 -4 6 -2 8 9 -3 11 -5 -9
right_child=5 7 3 10 -6 -7 -8 12 -10 -11 -12 -13 -14
leaf_value=0.13419025318155098 0 0.0075646402234926602 0 0 0.10162689636797942 -0.13675984073872993 -0.081535806028657717 0 0.032765093098611427 -0.036966578628337049 -0.0091310940319506272 0.035750775963853031 -0.039960307491027969
leaf_weight=85.891707956790924 54.934585556387901 22.836200192570686 30.932238563895226 68.334564760327339 112.40155263245106 163.30574257671833 44.891477301716805 29.17504745721817 36.799432024359703 42.074115470051765 36.429351642727852 109.39651274681091 28.46436370909214
leaf_count=352 351 111 138 320 481 1550 379 140 181 237 164 479 188
internal_value=0 0.0443351 0.064128 0.04033 0.085569 -0.109893 -0.0430189 0 0 0 0 0.0126193 -0.0263432
internal_weight=0 602.735 443.386 357.494 143.334 263.132 99.8261 159.349 101.71 64.9103 214.16 177.731 57.6394
internal_count=5071 2791 1934 1582 619 2280 730 857 529 348 963 799 328
is_linear=0
shrinkage=0.198533


Tree=8
num_leaves=16
num_cat=0
split_feature=8 7 17 18 18 18 17 6 15 1 18 18 18 13 18
split_gain=54.4394 14.0178 12.884 14.1704 10.422 7.403 5.09215 3.36087 2.91429 1.94394 1.41324 0.467971 0.263788 0.0696211 0.0362694
threshold=1.0000000180025095e-35 1.0000000180025095e-35 0.38831377961812757 -0.39912900359759373 -0.062215069111671024 0.44789315000655433 -0.25534851621808136 1.5000000000000002 1.0000000180025095e-35 1.0000000180025095e-35 -0.30931296153341969 0.34149467643503223 1.2430050832398736 1.5000000000000002 1.1489432978429004
decision_type=2 2 2 2 2 2 2 2 2 2 2 2 2 2 2
left_child=1 6 3 -2 -3 -4 10 11 -9 -5 -1 -6 -7 -12 -10
right_child=2 4 5 9 7 12 -8 8 14 -11 13 -13 -14 -15 -16
leaf_value=0.029701520633883597 0 0.10014992637415684 0.11761684070741228 -0.11051738436554086 0 0 -0.063683553160119755 0 0.05578026462990212 0 -0.0075335613534408853 -0.024452234894616585 -0.034491924704691534 0 0
leaf_weight=66.378528028726578 24.322376877069473 155.16812269389629 13.522426977753637 207.43165578693151 28.733550071716309 21.564449496567249 42.747501209378242 23.898718193173409 91.585273839533329 21.866068288683891 43.371873937547207 26.04813189804554 33.891738347709179 14.945456832647322 31.729621313512325
leaf_count=274 121 643 60 1807 126 126 282 130 401 152 248 141 270 89 201
internal_value=0 0.0362228 -0.0665641 -0.0870425 0.0586871 0 -0.000752573 0.015819 0.0347854 -0.103668 0.00747558 -0.00133379 -0.0243546 0 0.0482781
internal_weight=0 524.607 322.599 253.62 357.163 68.9786 167.443 201.995 147.214 229.298 124.696 54.7817 55.4562 58.3173 123.315
internal_count=5071 2535 2536 2080 1642 456 893 999 732 1959 611 267 396 337 602
is_linear=0
shrinkage=0.198533


Tree=9
num_leaves=12
num_cat=0
split_feature=14 17 17 4 4 9 4 4 17 17 4
split_gain=67.4264 14.6351 12.4644 10.1895 5.71845 1.56713 0.172888 0.484493 0.170387 1.02443 0.919602
threshold=1.0000000180025095e-35 0.12606395215090874 0.5820105820105822 -0.59782608695652162 1.0000000180025095e-35 1.0000000180025095e-35 0.141304347826087 0.57608695652173925 -0.27559236254888425 0.0041407867494824288 -0.29347826086956513
decision_type=2 2 2 2 2 2 2 2 2 2 2
left_child=1 3 -2 -1 -3 8 -6 -8 10 -10 -5
right_child=2 4 -4 5 6 -7 7 -9 9 -11 -12
leaf_value=0.06073194008820014 -0.11457893360203519 0.08904926638363192 0 0.026395145462841562 0 -0.039031088036626499 0.022061391648252823 0 -0.032039891438277519 0 0
leaf_weight=83.692755371332169 185.10734172165394 178.43270906805992 48.532458372414112 47.052818849682808 24.015783831477165 84.513492472469807 50.83053994178772 23.958701461553574 40.89243420958519 37.077301539480686 24.40007471293211
leaf_count=365 1912 754 368 206 109 512 231 122 193 165 134
internal_value=0 0.0330048 -0.0916477 0 0.0660251 -0.0176665 0.00347322 0.010056 0 -0.00899504 0.000239832
internal_weight=0 594.867 233.64 317.629 277.238 233.936 98.805 74.7892 149.423 77.9697 71.4529
internal_count=5071 2791 2280 1575 1216 1210 462 353 698 358 340
is_linear=0
shrinkage=0.198533


Tree=10
num_leaves=13
num_cat=0
split_feature=14 17 17 8 19 1 15 17 17 17 17 17
split_gain=47.1351 10.2371 9.59185 2.88516 1.79085 0.660567 0.576971 0.46399 0.00484261 0.0861666 0.0156403 0.00874407
threshold=1.0000000180025095e-35 0.15504945939728559 0.5820105820105822 1.0000000180025095e-35 1.0000000180025095e-35 1.0000000180025095e-35 1.0000000180025095e-35 -0.0013802622498273885 -0.73844030365769486 -0.38325281803542666 -0.010582010582010503 -0.28019323671497581
decision_type=2 2 2 2 2 2 2 2 2 2 2 2
left_child=1 5 3 -2 -3 6 -1 -7 -8 -10 11 -11
right_child=2 4 -4 -5 -6 7 8 -9 9 10 -12 -13
leaf_value=-0.013527045978979106 -0.013425279456558543 0 0 -0.12729114433380098 0.062277285126945983 0.034445162849042983 0 0 0.0095235656000795098 0 0 -0.0052859626835152929
leaf_weight=120.36166825890541 56.981020651757717 39.153205141425133 48.532458372414112 112.66191866248846 228.7236265167594 32.216442078351974 27.338161885738373 19.229545801877975 34.57137693464756 19.689820185303688 42.184654340147972 29.41849397867918
leaf_count=644 471 193 368 1441 984 149 155 84 156 93 189 144
internal_value=0 0.0268907 -0.0799253 -0.101629 0.0553464 0 -0.000833405 0.0214011 0 0.0012078 0 -0.00337603
internal_weight=0 592.887 218.175 169.643 267.877 325.01 273.564 51.446 153.203 125.864 91.293 49.1083
internal_count=5071 2791 2280 1912 1177 1614 1381 233 737 582 426 237
is_linear=0
shrinkage=0.198533


Tree=11
num_leaves=11
num_cat=0
split_feature=11 15 17 21 17 17 9 17 9 17
split_gain=25.4547 6.84568 6.08445 3.60443 1.00032 0.964739 0.890621 0.477031 0.22756 0.00226828
threshold=1.0000000180025095e-35 1.0000000180025095e-35 0.4688290775247298 1.5000000000000002 0.45870715435932841 0.057510927076144476 1.5000000000000002 -0.38325281803542666 1.5000000000000002 -0.455026455026455
decision_type=2 2 2 2 2 2 2 2 2 2
left_child=1 6 -2 5 -5 7 9 -3 -4 -1
right_child=2 3 8 4 -6 -7 -8 -9 -10 -11
leaf_value=0 -0.063288232565228877 0.022800636687990015 0.016478025434227387 -0.017325096994544209 0.026102749312987214 0.064909125912697319 -0.027171382737769402 0 -0.0039158757231339183 0.0010728540491924757
leaf_weight=23.749258138239384 226.65792987495661 49.131991274654865 25.401332542300224 44.632617741823196 31.032247938215733 174.41824737936258 42.677145265042782 66.437495730817318 41.994677752256393 72.695661127567291
leaf_count=111 2131 230 144 262 143 808 257 319 301 365
internal_value=0 0.0248713 -0.0479654 0.0397313 0 0.0496503 -0.000743791 0.00879672 0 0
internal_weight=0 504.775 294.054 365.653 75.6649 289.988 139.122 115.569 67.396 96.4449
internal_count=5071 2495 2576 1762 405 1357 733 549 445 476
is_linear=0
shrinkage=0.198533


Tree=12
num_leaves=14
num_cat=0
split_feature=4 17 15 4 10 4 11 6 15 17 17 17 5
split_gain=18.4111 14.6413 5.34001 4.61516 3.7732 2.97118 2.81953 2.08229 1.51242 1.69971 1.81354 1.36316 0.939455
threshold=-0.42391304347826081 0.42097998619737759 1.0000000180025095e-35 0.90217391304347838 1.0000000180025095e-35 -0.467391304347826 1.0000000180025095e-35 1.5000000000000002 1.0000000180025095e-35 0.63170002300437089 0.4688290775247298 0.057510927076144476 1.0000000180025095e-35
decision_type=2 2 2 2 2 2 2 2 2 2 2 2 2
left_child=2 4 -1 7 11 -4 -6 -3 -9 10 -10 12 -2
right_child=1 3 5 -5 6 -7 -8 8 9 -11 -12 -13 -14
leaf_value=0 0 0 0.071335557171746625 -0.038805033146897976 -0.001653980396844006 0 -0.10177026678613808 0 0 0 0.090857473335060029 0 -0.043527246444566278
leaf_weight=108.09755903482437 23.977738965302706 31.091642953455448 145.27195750176907 18.30764501541853 61.478331007063389 21.524946190416813 96.625740878283978 19.945800460875034 22.525424651801586 32.889156639575958 51.470844298601151 95.128084737807512 60.926457189023495
leaf_count=553 167 175 653 160 389 103 1279 126 106 193 249 491 427
internal_value=0 -0.0235764 0.039515 0.0146693 -0.0490878 0.0613949 -0.0759766 0.0337755 0.0450838 0.0541096 0.0706785 -0.0135777 -0.0312608
internal_weight=0 514.367 274.894 176.231 338.136 166.797 158.104 157.923 126.831 106.885 73.9963 180.032 84.9042
internal_count=5071 3762 1309 1009 2753 756 1668 849 674 548 355 1085 594
is_linear=0
shrinkage=0.198533


Tree=13
num_leaves=9
num_cat=0
split_feature=16 16 4 4 12 3 4 15
split_gain=16.1169 15.3881 6.83633 5.51694 4.99944 2.28313 0.382591 1.11598
threshold=1.5000000000000002 2.5000000000000004 -0.59782608695652162 -0.29347826086956513 1.5000000000000002 1.0000000180025095e-35 0.64130434782608703 1.0000000180025095e-35
decision_type=2 2 2 2 2 2 2 2
left_child=3 5 -3 -1 -4 6 7 -2
right_child=1 2 4 -5 -6 -7 -8 -9
leaf_value=0 0 0.014903910648306382 -0.075749919676820834 -0.056046220303451903 0 0 0 0.064198689640463366
leaf_weight=70.610177285969257 59.332288019359112 43.372630208730698 90.466312114149332 207.61639802902937 27.825815320014954 60.065712481737137 19.525086477398872 200.91453827917576
leaf_count=372 298 198 776 1834 181 345 138 929
internal_value=0 0.0191069 -0.0234835 -0.0398771 -0.0533316 0.045041 0.0526561 0.0550784
internal_weight=0 501.502 161.665 278.227 118.292 339.838 279.772 260.247
internal_count=5071 2865 1155 2206 957 1710 1365 1227
is_linear=0
shrinkage=0.198533


Tree=14
num_leaves=13
num_cat=0
split_feature=9 6 18 18 18 1 5 18 13 18 18 18
split_gain=10.7109 6.14179 5.12505 3.42765 3.11293 2.66792 1.73472 1.30328 1.3013 0.584023 0.846944 0.255491
threshold=1.0000000180025095e-35 1.0000000180025095e-35 -0.062215069111671024 -0.26436488631894778 -0.39912900359759373 1.0000000180025095e-35 1.0000000180025095e-35 0.18600434041685479 1.5000000000000002 -0.38653742517150463 -0.37751431026697924 0.26902573663282703
decision_type=2 2 2 2 2 2 2 2 2 2 2 2
left_child=1 3 -3 9 -2 6 -6 -4 -9 -1 -11 -5
right_child=4 2 7 11 5 -7 -8 8 -10 10 -12 -13
leaf_value=0 0 0.077379303514084855 -0.01183826141971365 -0.036708247496904038 0 0 -0.046421982595540548 0 0.038682642177536357 0.052598114661949517 0 0
leaf_weight=21.454922631382942 24.338939756155014 98.91489028185606 33.140556592494249 71.160593964159489 20.380446504801512 62.69116497784853 245.79426452517509 21.623519320040941 60.05808225274086 30.796893447637558 51.989779964089394 26.793721880763769
leaf_count=87 121 470 175 368 176 381 2193 147 382 139 228 204
internal_value=0 0.0205635 0.0438246 0 -0.0261101 -0.0331507 -0.0417237 0 0.023046 0.0197434 0.0273381 -0.0299818
internal_weight=0 415.933 213.737 202.196 353.205 328.866 266.175 114.822 81.6816 104.242 82.7867 97.9543
internal_count=5071 2200 1174 1026 2871 2750 2369 704 529 454 367 572
is_linear=0
shrinkage=0.198533


Tree=15
num_leaves=19
num_cat=0
split_feature=4 17 4 17 7 4 7 18 18 4 4 17 17 17 6 17 17 17
split_gain=9.74905 9.68906 5.68795 4.17168 3.29314 2.05809 0.781842 0.631713 0.550279 0.537952 0.534435 0.438229 0.928115 0.319631 0.270497 0.0787388 0.306239 0.0353215
threshold=-0.59782608695652162 0.057510927076144476 0.90217391304347838 0.49275362318840582 1.0000000180025095e-35 -0.14130434782608695 1.0000000180025095e-35 0.55204858936452228 1.4815386632098695 0.75000000000000011 -0.31521739130434778 0.44582470669427199 0.23050379572118704 0.44306418219461696 1.5000000000000002 -0.21854152288934894 -0.58523119392684608 0.2774327122153209
decision_type=2 2 2 2 2 2 2 2 2 2 2 2 2 2 2 2 2 2
left_child=4 5 3 7 -1 6 15 11 14 13 -8 12 -3 17 -5 16 -2 -9
right_child=1 2 -4 8 -6 -7 10 9 -10 -11 -12 -13 -14 -15 -16 -17 -18 -19
leaf_value=0 0 0 -0.067608174520207315 0 0.083115692813454004 -0.067475398149688143 -0.03670796124184058 0 0 0 0 0 0.026757721247541284 0 0.061237171200386097 -0.0073650546053341866 0.014101319616545567 -0.041130572979289376
leaf_weight=36.53965675085783 20.024752870202065 81.128486391156912 23.342468768358231 18.532820887863636 61.642937295138836 101.66466274857521 43.417051576077938 18.857224397361279 23.651712663471699 12.385129034519194 12.6160133741796 18.714731395244598 88.566990349441767 13.362470164895056 77.550456240773201 25.062677800655365 63.135731376707554 22.786367569118738
leaf_count=150 94 400 261 102 297 1299 339 158 176 138 132 83 403 73 381 140 309 136
internal_value=0 -0.0089643 0.00667005 0.0172102 0.0565961 -0.0392695 -0.00887538 0 0.0471397 -0.0127568 -0.0268996 0.00823723 0.0131912 -0.0234482 0.0543767 0 0.00408933 -0.0312669
internal_weight=0 664.8 398.879 375.536 98.1826 265.921 164.256 255.801 119.735 67.3912 56.0331 188.41 169.695 55.0061 96.0833 108.223 83.1605 41.6436
internal_count=5071 4624 2311 2050 447 2313 1014 1391 659 505 471 886 803 367 483 543 403 294
is_linear=0
shrinkage=0.198533


Tree=16
num_leaves=12
num_cat=0
split_feature=14 4 6 16 16 3 18 16 18 18 18
split_gain=21.4035 4.40078 5.27082 2.90691 3.8679 1.16514 1.04793 1.02541 0.564912 1.47882 0.460605
threshold=1.5000000000000002 -0.59782608695652162 1.0000000180025095e-35 1.5000000000000002 2.5000000000000004 1.0000000180025095e-35 -0.1088818328793859 1.0000000180025095e-35 -0.040979069869059213 0.89383456894417179 -0.34855877769200511
decision_type=2 2 2 2 2 2 2 2 2 2 2
left_child=1 -1 6 8 5 -5 7 -3 -4 -10 -9
right_child=-2 2 3 4 -6 -7 -8 10 9 -11 -12
leaf_value=0.049999579316060916 -0.094825363193739562 0 0.015806766387857673 0.054666661947776057 0 0 0 0 -0.034848456417712476 0 -0.042568615189627533
leaf_weight=96.729277238249779 79.823391269892454 21.577285654842854 28.145377732813358 144.90949120000005 36.54430665075779 27.997626956552267 99.165471516549587 41.912612654268742 54.53777489811182 34.599010813981295 90.455311391502619
leaf_count=438 1234 152 157 696 221 153 639 253 347 225 556
internal_value=0 0.010908 0.000698938 0.020172 0.0341145 0.0475387 -0.0168249 -0.0268256 0 -0.012192 -0.0335698
internal_weight=0 676.574 579.844 326.734 209.451 172.907 253.111 153.945 117.282 89.1368 132.368
internal_count=5071 3837 3399 1799 1070 849 1600 961 729 572 809
is_linear=0
shrinkage=0.198533


Tree=17
num_leaves=9
num_cat=0
split_feature=14 13 18 18 21 7 18 18
split_gain=15.3492 4.75269 2.8496 0.749883 0.700454 0.531896 0.967884 0.925831
threshold=1.5000000000000002 1.5000000000000002 -0.30627612625078277 1.4276111685625645 1.5000000000000002 1.5000000000000002 -0.39163523020230995 -0.37336324045618069
decision_type=2 2 2 2 2 2 2 2
left_child=1 2 5 4 -3 6 -1 -8
right_child=-2 3 -4 -5 -6 -7 7 -9
leaf_value=0 -0.083825826686036525 0.041458722855591094 -0.019436303111761925 0 0 0 0.049110086861057584 0
leaf_weight=27.086811125278473 73.717001408338547 167.43759911507368 222.24844146892428 23.092278242111206 81.443394903093576 51.579414650797844 45.704376429319382 56.627136066555977
leaf_count=110 1234 835 1454 147 448 382 211 250
internal_value=0 0.00874465 -0.000614115 0.0293879 0.0325367 0.0119667 0.0188189 0.0282675
internal_weight=0 675.219 403.246 271.973 248.881 180.998 129.418 102.332
internal_count=5071 3837 2407 1430 1283 953 571 461
is_linear=0
shrinkage=0.198533


Tree=18
num_leaves=10
num_cat=0
split_feature=14 13 4 12 7 18 14 18 4
split_gain=11.0236 3.25314 2.74673 1.79947 1.73285 0.825994 0.4061 0.0366861 0.0644582
threshold=1.5000000000000002 1.5000000000000002 -0.59782608695652162 1.5000000000000002 1.0000000180025095e-35 1.4276111685625645 1.0000000180025095e-35 -0.10046317199994172 -0.55434782608695643
decision_type=2 2 2 2 2 2 2 2 2
left_child=1 2 4 -3 -1 -5 7 8 -4
right_child=-2 3 6 5 -6 -7 -8 -9 -10
leaf_value=0 -0.07352225331128015 0 0 0.040042120375178923 0.047051896720065808 0 -0.037925774372334013 0 -0.0058892261831191344
leaf_weight=31.495946064591408 68.639627274125814 88.810644146054983 48.714620381593704 162.33064093068242 51.948053330183029 21.165392681956291 40.97003785148263 105.1880287528038 122.91592694073915
leaf_count=128 1234 474 228 822 251 134 578 543 679
internal_value=0 0.00733969 0 0.0243772 0.0255514 0.0353635 -0.0125126 -0.00126248 -0.00327577
internal_weight=0 673.539 401.233 272.307 83.444 183.496 317.789 276.819 171.631
internal_count=5071 3837 2407 1430 379 956 2028 1450 907
is_linear=0
shrinkage=0.198533


Tree=19
num_leaves=10
num_cat=0
split_feature=8 16 17 4 16 4 4 17 17
split_gain=4.28626 3.45084 2.91232 2.58115 1.85643 1.14819 0.859611 1.53686 1.46771
threshold=1.0000000180025095e-35 1.5000000000000002 0.38831377961812757 -0.55434782608695643 2.5000000000000004 0.097826086956521743 -0.48913043478260865 0.4835518748562227 -0.28019323671497581
decision_type=2 2 2 2 2 2 2 2 2
left_child=1 6 3 -2 -3 -4 -1 8 -8
right_child=2 4 5 -5 -6 -7 7 -9 -10
leaf_value=0 0 0.030284606032413421 0.046165064185476383 -0.04874331186282365 0 0 0 0 -0.044399424562091831
leaf_weight=22.894212931394577 47.789507020264864 265.67826671525836 16.255963243544102 137.81976141780615 74.157262027263641 45.993514109402895 19.239190760999918 31.463087052106857 75.90817890688777
leaf_count=98 242 1265 73 1838 366 383 137 202 467
internal_value=0 0.00966692 -0.0220339 -0.0353037 0.0225323 0 -0.0068012 -0.0176574 -0.0318552
internal_weight=0 489.34 247.859 185.609 339.836 62.2495 149.505 126.61 95.1474
internal_count=5071 2535 2536 2080 1631 456 904 806 604
is_linear=0
shrinkage=0.198533


Tree=20
num_leaves=16
num_cat=0
split_feature=14 6 18 17 17 18 17 17 18 17 17 18 17 17 18
split_gain=6.80802 2.71434 2.49838 3.18177 1.99947 1.3081 1.28672 1.27516 1.05256 0.324082 0.629757 0.205163 0.0264985 0.0694291 0.00996155
threshold=1.5000000000000002 1.0000000180025095e-35 -0.062215069111671024 -0.68138946399815958 0.61237635150678649 -0.34855877769200511 0.45870715435932841 -0.46054750402576483 0.26902573663282703 0.4688290775247298 0.66022544283413864 -0.39750498856635147 0.078674948240165618 -0.4481251437773176 0.55204858936452228
decision_type=2 2 2 2 2 2 2 2 2 2 2 2 2 2 2
left_child=1 5 3 -3 -2 7 8 11 -7 12 -11 -1 13 -4 -10
right_child=4 2 9 -5 -6 6 -8 -9 14 10 -12 -13 -14 -15 -16
leaf_value=0 -0.079711852987706208 0 0 0.057094078933955607 0 -0.030986994320134485 0 0.027183097460175644 0.0042470812262532737 0.022695885405658239 0 -0.015022946449164788 0 -0.011151448176749186 0
leaf_weight=24.763558432459831 46.704737979918718 28.234663847833872 9.9096408151090127 101.23821133002639 16.217147402465343 147.21553098037839 23.31539985537529 64.40705993771553 16.788553133606911 68.007681369781494 22.250057615339756 30.851570889353752 90.281086437404156 25.427450343966484 15.662376362830399
leaf_count=112 1043 165 92 494 191 950 121 295 125 330 125 216 479 213 120
internal_value=0 0.0052773 0.0186885 0.040527 -0.0606281 -0.00321197 -0.0161041 0.00284239 -0.0238067 0 0.0115812 0 -3.68214e-05 -0.00509027 0
internal_weight=0 668.353 345.349 129.473 62.9219 323.004 202.982 120.022 179.666 215.876 90.2577 55.6151 125.618 35.3371 32.4509
internal_count=5071 3837 1898 659 1234 1939 1316 623 1195 1239 455 328 784 305 245
is_linear=0
shrinkage=0.198533


Tree=21
num_leaves=8
num_cat=0
split_feature=9 16 16 8 13 20 13
split_gain=2.23587 1.84968 3.76099 1.67202 0.287995 0.262728 0.045888
threshold=1.0000000180025095e-35 1.5000000000000002 2.5000000000000004 1.0000000180025095e-35 1.5000000000000002 1.5000000000000002 1.5000000000000002
decision_type=2 2 2 2 2 2 2
left_child=1 6 -3 -2 -4 -5 -1
right_child=3 2 4 5 -6 -7 -8
leaf_value=-0.0050992522899329356 0 0.034116537017112647 -0.013545034209431088 -0.031348878695196175 0 0 0
leaf_weight=64.579564044252038 169.02034254744649 213.19628260657191 56.892268996685743 128.92031831853092 17.178909949958324 25.947422839701176 50.169527091085911
leaf_count=401 976 1037 298 1551 107 344 357
internal_value=0 0.00897673 0.0190181 -0.012971 0 -0.0275398 0
internal_weight=0 402.017 287.267 323.888 74.0712 154.868 114.749
internal_count=5071 2200 1442 2871 405 1895 758
is_linear=0
shrinkage=0.198533


Tree=22
num_leaves=13
num_cat=0
split_feature=11 18 6 18 9 12 18 18 18 20 18 18
split_gain=1.8474 2.38589 2.60811 1.17381 1.21171 0.786691 0.7327 0.665843 0.298988 0.24654 0.332359 0.122192
threshold=1.0000000180025095e-35 -0.34855877769200511 1.0000000180025095e-35 -0.39912900359759373 1.0000000180025095e-35 1.5000000000000002 -0.39305533303231993 1.4276111685625645 -0.37527127605342486 1.5000000000000002 1.6776949182166423 0.26902573663282703
decision_type=2 2 2 2 2 2 2 2 2 2 2 2
left_child=1 6 11 -2 -5 -4 -1 -7 -8 10 -6 -3
right_child=3 2 5 4 9 7 8 -9 -10 -11 -12 -13
leaf_value=0 0 -0.02662882595078369 0 0 -0.042032252580214507 0.026801030070586804 0.049385858544680597 0 0 0 0 0
leaf_weight=19.383648067712784 25.600988276302814 108.01511885598302 106.13804999738932 86.383067818358541 93.633854461833835 113.00058770924807 56.581489473581314 15.475061070173977 28.918279021978378 25.148064687848091 12.851258367300032 31.663120947778225
leaf_count=79 122 522 570 638 1324 594 273 112 128 347 145 217
internal_value=0 0.00564702 0 -0.0151922 -0.0215587 0.0107119 0.0315676 0.0209368 0.0391048 -0.0332907 -0.0380196 -0.0228165
internal_weight=0 479.175 374.292 243.617 218.016 234.614 104.883 128.476 85.4998 131.633 106.485 139.678
internal_count=5071 2495 2015 2576 2454 1276 480 706 401 1816 1469 739
is_linear=0
shrinkage=0.198533


Tree=23
num_leaves=12
num_cat=0
split_feature=4 12 20 11 4 1 8 3 4 4 4
split_gain=1.71891 1.15963 1.27073 1.09508 0.965661 0.325575 0.260569 0.0891852 0.252268 0.162088 0.328412
threshold=-0.40217391304347822 1.5000000000000002 1.5000000000000002 1.0000000180025095e-35 -0.22826086956521738 1.0000000180025095e-35 1.5000000000000002 1.0000000180025095e-35 0.48913043478260876 0.88043478260869568 0.1630434782608696
decision_type=2 2 2 2 2 2 2 2 2 2 2
left_child=3 2 4 6 -2 -6 -1 9 -9 10 -3
right_child=1 7 -4 -5 5 -7 -8 8 -10 -11 -12
leaf_value=0.022258879137569278 0 0 0 0 -0.051714345360463987 0 0 0 -0.020232255593675141 0 0.01547623678461638
leaf_weight=170.57263227552176 28.378528892993927 79.022580336779356 102.22704118303955 79.028833512216806 62.660772560164332 15.514774672687052 25.400307349860668 35.655297555029392 23.742081854492426 14.154610235244034 82.844141788780689
leaf_count=790 238 389 738 491 928 110 113 229 294 189 562
internal_value=0 -0.00872656 -0.0193351 0.0109459 -0.0341405 -0.0449563 0.0195377 0 -0.0053077 0.00306618 0.00696351
internal_weight=0 444.2 208.781 275.002 106.554 78.1755 195.973 235.419 59.3974 176.021 161.867
internal_count=5071 3677 2014 1394 1276 1038 903 1663 523 1140 951
is_linear=0
shrinkage=0.198533


Tree=24
num_leaves=16
num_cat=0
split_feature=14 9 6 18 3 8 18 8 18 18 18 18 18 18 18
split_gain=3.55393 1.30926 1.09242 1.29268 1.58164 0.551015 0.453458 0.859696 0.232485 0.166233 0.133453 0.13979 0.0194219 0.189841 0.0169723
threshold=1.5000000000000002 1.0000000180025095e-35 1.0000000180025095e-35 -0.062215069111671024 1.0000000180025095e-35 1.0000000180025095e-35 -0.34855877769200511 1.5000000000000002 -0.30931296153341969 0.26902573663282703 0.18600434041685479 1.4815386632098695 0.79812692078010983 0.48633788251744176 -0.39163523020230995
decision_type=2 2 2 2 2 2 2 2 2 2 2 2 2 2 2
left_child=2 -2 6 4 5 -4 14 8 -8 -10 -5 12 13 -12 -1
right_child=1 -3 3 10 -6 -7 7 -9 9 -11 11 -13 -14 -15 -16
leaf_value=0 0 -0.0616780837907056 0.044605457456587359 -0.00580711218265525 0 0 0 0 -0.025447697740737851 0 0.01109593967579719 0 0.012031280380502473 -0.0050128654365287377 0.0029436123404699248
leaf_weight=44.869256213307381 13.25621630437672 44.16717765852809 86.704634770750999 49.060462605208158 22.961960330605507 17.428148508071899 24.837918598204851 44.298069875687361 99.789973314851522 30.688274059444666 46.980359949171543 18.793679997324944 62.122947581112385 38.213776048272848 72.225761156529188
leaf_count=209 229 1005 418 280 136 105 164 333 637 182 266 123 357 213 414
internal_value=0 -0.0465735 0.00266699 0.0116844 0.0272897 0.0383771 -0.00107668 -0.00944364 -0.0180339 -0.0212721 0 0.00448253 0.00766495 0 0
internal_weight=0 57.4234 658.975 342.266 127.095 104.133 316.709 199.614 155.316 130.478 215.171 166.111 147.317 85.1941 117.095
internal_count=5071 1234 3837 1898 659 523 1939 1316 983 819 1239 959 836 479 623
is_linear=0
shrinkage=0.198533


Tree=25
num_leaves=18
num_cat=0
split_feature=14 17 17 4 17 14 17 17 18 18 17 18 4 18 18 17 17
split_gain=2.45817 1.49606 1.47291 1.13531 0.749223 0.60004 0.554126 1.04885 0.258969 0.241808 0.832745 0.749061 0.294031 0.20725 0.156148 0.12528 0.0650763
threshold=1.5000000000000002 0.64918334483551876 0.49275362318840582 -0.59782608695652162 0.66022544283413864 1.0000000180025095e-35 -0.010582010582010503 -0.21854152288934894 -0.14638711274888208 -0.20568915041437866 0.2774327122153209 0.005214326288652313 0.40217391304347833 0.041751023202295484 -0.33093493744264962 -0.37405106970324359 -0.31976075454336322
decision_type=2 2 2 2 2 2 2 2 2 2 2 2 2 2 2 2 2
left_child=2 -2 3 15 5 -4 7 16 -9 14 11 -11 -13 -12 -8 -1 -5
right_child=1 -3 4 6 -6 -7 9 8 -10 10 13 12 -14 -15 -16 -17 -18
leaf_value=0 -0.056577473569085948 0 0.040916530961146468 -0.0044457914111272522 0 0 0 -0.060436777199646637 0 -0.0058264099076018906 0 0.027442950316156078 0 -0.023435696702407277 0.016295167493599768 0.026572363576347836 0
leaf_weight=52.695023715496063 42.903821498155594 12.17733547836542 63.007394686341286 124.79553739354014 23.983757480978966 23.739572323858738 24.300185710191727 20.213056094944477 21.146085724234581 35.751630239188671 22.446733132004738 47.77657886967063 14.40208490565419 75.19296769797802 42.639204241335392 39.007966697216034 26.95716829225421
leaf_count=228 1076 158 281 1000 135 149 112 99 194 161 100 277 121 387 198 206 189
internal_value=0 -0.0396256 0.00197405 0 0.0228923 0.0313533 -0.00635944 -0.0142932 -0.0420177 0 -0.00389424 0 0.0204705 -0.0186946 0.00949922 0.0164369 0
internal_weight=0 55.0812 658.055 547.324 110.731 86.747 455.621 193.112 41.3591 262.509 195.57 97.9303 62.1787 97.6397 66.9394 91.703 151.753
internal_count=5071 1234 3837 3272 565 430 2838 1482 293 1356 1046 559 398 487 310 434 1189
is_linear=0
shrinkage=0.198533


Tree=26
num_leaves=9
num_cat=0
split_feature=14 9 13 6 16 16 7 21
split_gain=1.63079 1.02417 0.812311 1.3454 0.601198 0.976928 0.692317 0.156533
threshold=1.5000000000000002 1.0000000180025095e-35 1.5000000000000002 1.0000000180025095e-35 1.5000000000000002 2.5000000000000004 1.0000000180025095e-35 1.0000000180025095e-35
decision_type=2 2 2 2 2 2 2 2
left_child=2 -2 4 -4 -1 6 -6 -5
right_child=1 -3 3 7 5 -7 -8 -9
leaf_value=-0.014102279111589648 0 -0.047792258694145787 0 0 0 -0.0068484277730071069 0.023129498792006275 0.024625109399871531
leaf_weight=114.4522098749876 12.705775965005158 40.258334329351783 92.083988696336746 29.816324695944786 53.033257152885199 112.17262218892574 107.73544292151928 147.529271453619
leaf_count=825 229 1005 486 177 275 747 560 767
internal_value=0 -0.032963 0.00141186 0.0110129 -0.000375715 0 0.0141126 0.0217575
internal_weight=0 52.9641 656.823 269.43 387.394 272.941 160.769 177.346
internal_count=5071 1234 3837 1430 2407 1582 835 944
is_linear=0
shrinkage=0.198533


Tree=27
num_leaves=6
num_cat=0
split_feature=14 8 4 16 6
split_gain=1.07561 0.929559 0.591551 0.212851 0.683652
threshold=1.0000000180025095e-35 1.0000000180025095e-35 -0.59782608695652162 2.5000000000000004 1.0000000180025095e-35
decision_type=2 2 2 2 2
left_child=2 -2 -1 4 -4
right_child=1 -3 3 -5 -6
leaf_value=0.016325933386731835 0 -0.029708883011441763 -0.001193067857787709 -0.0099188254314968756 0.010742216232460475
leaf_weight=91.355321779847145 68.913138002157211 81.891941905021667 158.95330156385899 76.445729900151491 229.79464793205261
leaf_count=436 628 1652 806 452 1097
internal_value=0 -0.0160309 0.00205026 0 0.000980797
internal_weight=0 150.805 556.549 465.194 388.748
internal_count=5071 2280 2791 2355 1903
is_linear=0
shrinkage=0.198533


Tree=28
num_leaves=9
num_cat=0
split_feature=4 0 6 16 16 6 0 16
split_gain=0.62923 0.995178 0.425554 0.326445 1.2387 0.673686 0.234632 0.218503
threshold=-0.40217391304347822 1.0000000180025095e-35 1.0000000180025095e-35 1.5000000000000002 2.5000000000000004 1.0000000180025095e-35 1.0000000180025095e-35 2.5000000000000004
decision_type=2 2 2 2 2 2 2 2
left_child=2 -2 6 -3 5 -5 -1 -4
right_child=1 3 7 4 -6 -7 -8 -9
leaf_value=0.0066231183648093822 -0.015994179349437573 -0.0042044201118442348 0.021452822227738484 0 0 0.03457468502331567 -0.0071177458417315308 0
leaf_weight=88.661605548113585 219.2643260192126 94.333583706989884 64.656029025092721 27.091906521469355 26.189203789457679 67.371438555419445 96.48610706999898 21.009090654551983
leaf_count=458 1857 976 327 170 314 360 502 107
internal_value=0 -0.00642635 0.00491487 0 0.00940446 0.0245501 0 0.0160793
internal_weight=0 434.25 270.813 214.986 120.653 94.4633 185.148 85.6651
internal_count=5071 3677 1394 1820 844 530 960 434
is_linear=0
shrinkage=0.198533


Tree=29
num_leaves=14
num_cat=0
split_feature=15 18 14 18 18 18 18 18 18 13 18 18 12
split_gain=0.977897 0.899582 0.759017 0.0538501 0.953004 0.28083 0.254288 0.101625 0.135351 0.0394769 0.016448 0.0147813 0.00731095
threshold=1.0000000180025095e-35 -0.1861354268319326 1.0000000180025095e-35 0.79812692078010983 0.55204858936452228 0.17829208966310792 0.041751023202295484 -0.10612901816275103 -0.040979069869059213 1.5000000000000002 0.423809662525307 0.25636861499919894 1.0000000180025095e-35
decision_type=2 2 2 2 2 2 2 2 2 2 2 2 2
left_child=2 -2 12 4 5 6 7 -3 -9 -5 11 -7 -1
right_child=1 3 -4 9 -6 10 -8 8 -10 -11 -12 -13 -14
leaf_value=-0.0016456418501493131 0.015100627308214293 -0.0030753108158103394 -0.031973157722316646 0 -0.03153988099294066 0 -0.018051920074834818 0.017970334444028201 0 0.0042581949936272758 0 0.018772550647582518 0
leaf_weight=101.42735838890076 168.9518793579191 32.078721560537815 57.877329014241695 17.299554102122784 34.915280794724822 17.561196161434054 27.902750173583627 22.859602173790336 22.90319973602891 80.834690045565367 21.362073628231883 27.958621516823769 69.438712533563375
leaf_count=508 906 191 1141 152 239 100 170 137 154 654 130 165 424
internal_value=0 0.00296066 -0.0121213 0 -0.00316028 0 -0.00250069 0 0.00848725 0 0.0120166 0.0147757 0
internal_weight=0 474.628 228.743 305.676 207.541 172.626 105.744 77.8415 45.7628 98.1342 66.8819 45.5198 170.866
internal_count=5071 2998 2073 2092 1286 1047 652 482 291 806 395 265 932
is_linear=0
shrinkage=0.198533


Tree=30
num_leaves=7
num_cat=0
split_feature=1 4 12 4 9 4
split_gain=0.704043 0.946604 0.727635 0.827788 0.00136562 0.0469792
threshold=1.0000000180025095e-35 0.64130434782608703 1.5000000000000002 -0.59782608695652162 1.5000000000000002 0.31521739130434789
decision_type=2 2 2 2 2 2
left_child=2 -2 3 -1 5 -4
right_child=1 -3 4 -5 -6 -7
leaf_value=0 0.019457306572902591 0 0.0043192217175157368 -0.016821046028740412 0 0
leaf_weight=71.694669842720032 128.32499322481453 19.005162818357348 97.162876628339291 263.27226583845913 96.663411652669311 25.378162670880556
leaf_count=335 645 177 512 2350 814 238
internal_value=0 0.00929408 -0.00510878 -0.0112825 0 0.000649693
internal_weight=0 147.33 554.171 334.967 219.204 122.541
internal_count=5071 822 4249 2685 1564 750
is_linear=0
shrinkage=0.198533


Tree=31
num_leaves=7
num_cat=0
split_feature=17 3 11 14 17 19
split_gain=0.741927 0.383675 0.338422 0.24274 0.238311 0.034227
threshold=0.12606395215090874 1.0000000180025095e-35 1.0000000180025095e-35 1.5000000000000002 -0.92523579480101203 1.5000000000000002
decision_type=2 2 2 2 2 2
left_child=2 3 -1 5 -4 -2
right_child=1 -3 4 -5 -6 -7
leaf_value=0 0.013478098462957304 0 0 0 -0.022108070094554486 0
leaf_weight=223.2566752396524 180.11327718570828 75.540365507826209 42.740125207230449 17.482451785355806 85.843585807830095 74.945099625736475
leaf_count=1210 932 557 593 292 1122 365
internal_value=0 0.00463483 -0.00779103 0.0090455 -0.0161875 0.0111407
internal_weight=0 348.081 351.84 272.541 128.584 255.058
internal_count=5071 2146 2925 1589 1715 1297
is_linear=0
shrinkage=0.198533


Tree=32
num_leaves=10
num_cat=0
split_feature=14 9 13 21 16 16 7 11 7
split_gain=0.473688 0.671734 0.317548 0.314149 0.276039 0.320205 0.386383 0.229968 0.0508896
threshold=1.5000000000000002 1.0000000180025095e-35 1.5000000000000002 1.5000000000000002 1.5000000000000002 2.5000000000000004 1.0000000180025095e-35 1.0000000180025095e-35 1.5000000000000002
decision_type=2 2 2 2 2 2 2 2 2
left_child=2 -2 4 -4 8 6 -6 -3 -1
right_child=1 7 3 -5 5 -7 -8 -9 -10
leaf_value=-0.011209459998421767 0 0 0.011403566763396059 0 0 -0.0033256012231432327 0.015431879787744648 -0.039246826690320716 0
leaf_weight=98.046373046934605 12.184419577941297 6.4275270923972121 186.03075347095728 81.602864250540733 52.780321758240461 110.48586293309927 106.60685608163476 30.215988369658589 14.342090550810097
leaf_count=620 229 111 982 448 275 747 560 894 205
internal_value=0 -0.0186277 0 0.00675977 -0.000391518 0 0.00830762 -0.0329345 -0.0096544
internal_weight=0 48.8279 649.895 267.634 382.262 269.873 159.387 36.6435 112.388
internal_count=5071 1234 3837 1430 2407 1582 835 1005 825
is_linear=0
shrinkage=0.198533


Tree=33
num_leaves=6
num_cat=0
split_feature=15 14 16 16 9
split_gain=0.490923 0.374689 0.224697 0.274452 0.158273
threshold=1.0000000180025095e-35 1.0000000180025095e-35 1.5000000000000002 2.5000000000000004 1.5000000000000002
decision_type=2 2 2 2 2
left_child=1 -1 -2 4 -4
right_child=2 -3 3 -5 -6
leaf_value=0 0 -0.023539914153780404 0.012697524791760773 0 0
leaf_weight=169.96076345071197 158.23076324537396 55.262693019583821 160.3110522441566 70.858107134699821 82.588092183694243
leaf_count=932 1265 1141 818 473 442
internal_value=0 -0.00899197 0.00124285 0.00548615 0.00907427
internal_weight=0 225.223 471.988 313.757 242.899
internal_count=5071 2073 2998 1733 1260
is_linear=0
shrinkage=0.198533


Tree=34
num_leaves=10
num_cat=0
split_feature=17 18 1 18 17 17 18 21 18
split_gain=0.578493 1.18226 0.494986 0.476164 0.27688 0.154127 0.158683 0.132321 0.121805
threshold=0.49275362318840582 -0.27454593122332743 1.0000000180025095e-35 1.4815386632098695 0.42097998619737759 -0.93535771796641354 -0.34056978895087164 1.5000000000000002 -0.39163523020230995
decision_type=2 2 2 2 2 2 2 2 2
left_child=1 5 4 7 -3 -1 8 -2 -7
right_child=3 2 -4 -5 -6 6 -8 -9 -10
leaf_value=0 0.026332324219937021 -0.019758115255665069 0 0 0 0 0 0 0.012611705147727031
leaf_weight=15.459308141842483 43.418998394161463 226.20126979798079 80.374455604702234 33.061167325824499 33.239036541432142 48.59317322075367 61.487401653081179 51.379071291536093 102.72236988693476
leaf_count=139 224 2286 461 325 186 226 385 263 576
internal_value=0 -0.00480419 -0.0131724 0.00849008 -0.0173216 0 0.00528153 0.0168543 0.00888179
internal_weight=0 568.077 339.815 127.859 259.44 228.262 212.803 94.7981 151.316
internal_count=5071 4259 2933 812 2472 1326 1187 487 802
is_linear=0
shrinkage=0.198533


Tree=35
num_leaves=15
num_cat=0
split_feature=17 1 4 17 4 17 17 17 17 17 4 4 4 4
split_gain=0.378958 0.726525 0.597154 1.07031 0.550542 0.690326 0.712536 0.455773 0.0858161 1.03423 0.239496 0.191044 0.287736 0.0759867
threshold=0.033586381412468426 1.0000000180025095e-35 -0.4456521739130434 0.094317920404876951 -0.59782608695652162 -0.21854152288934894 -0.010582010582010503 -0.46790890269151136 0.4688290775247298 0.2774327122153209 0.88043478260869568 -0.097826086956521716 0.59782608695652184 0.032608695652173919
decision_type=2 2 2 2 2 2 2 2 2 2 2 2 2 2
left_child=1 4 3 -2 -1 7 -7 -6 9 11 -10 -4 -13 -11
right_child=2 -3 8 -5 5 6 -8 -9 10 13 -12 12 -14 -15
leaf_value=0 0 0 0 0.031275623142069359 -0.014453720382960391 -0.052481812856927296 0 0 0.0089056598231457909 0 0 0.020628668664225205 0 -0.030220313482462458
leaf_weight=65.299303464591503 16.571898967027664 38.100123949348927 47.724486736580729 63.773766864091158 81.012234350666404 38.239633787423372 14.166545735672115 59.518012017011642 115.30185148119926 44.417234782129526 14.749662663787602 39.367284184321761 9.1352876108139736 46.530735280364752
leaf_count=299 83 238 226 328 1184 370 95 423 646 200 182 276 168 353
internal_value=0 -0.0066709 0.00194827 0.0171394 -0.0126387 -0.0179466 -0.0398117 0 0 -0.00413323 0.000859638 0 0.0118658 -0.0214283
internal_weight=0 296.336 397.572 80.3457 258.236 192.936 52.4062 140.53 317.227 187.175 130.052 96.2271 48.5026 90.948
internal_count=5071 2609 2462 411 2371 2072 465 1607 2051 1223 828 670 444 553
is_linear=0
shrinkage=0.198533


Tree=36
num_leaves=6
num_cat=0
split_feature=15 21 7 5 7
split_gain=0.255886 0.312394 0.380888 0.146374 0.102678
threshold=1.0000000180025095e-35 1.5000000000000002 1.0000000180025095e-35 1.0000000180025095e-35 1.5000000000000002
decision_type=2 2 2 2 2
left_child=3 2 -2 -1 -4
right_child=1 -3 4 -5 -6
leaf_value=0 0 0 0.011641046354909756 -0.0087783846752711257 0
leaf_weight=25.979527421295643 111.95465774647892 105.22908376716077 229.07556383125484 196.29955318942666 22.870386831462383
leaf_count=210 690 742 1258 1863 308
internal_value=0 0.000852621 0.00585782 -0.00654705 0.0103778
internal_weight=0 469.13 363.901 222.279 251.946
internal_count=5071 2998 2256 2073 1566
is_linear=0
shrinkage=0.198533


Tree=37
num_leaves=10
num_cat=0
split_feature=4 13 15 4 18 18 18 18 18
split_gain=0.236339 0.614052 0.0897855 0.0750582 0.393388 0.154726 0.128195 0.132428 0.034563
threshold=-0.59782608695652162 1.5000000000000002 1.0000000180025095e-35 0.90217391304347838 0.76795519757635788 0.48633788251744176 0.26902573663282703 0.041751023202295484 -0.30627612625078277
decision_type=2 2 2 2 2 2 2 2 2
left_child=2 -2 -1 4 5 6 7 8 -3
right_child=1 3 -4 -5 -6 -7 -8 -9 -10
leaf_value=0 -0.0096651110804271551 0 0.011529434831159369 0 0.013999276278422386 -0.013032798799875326 0.012002912349215722 -0.011687942560252211 0.0044747258212365698
leaf_weight=41.91232555359602 315.24756319075823 20.485660526901484 48.761239282786846 15.417663874104617 89.234401769936085 30.835705120116472 30.199157515540719 32.853297580033541 65.628987899050117
leaf_count=194 2683 97 253 263 661 220 179 182 339
internal_value=0 -0.00307263 0.0061388 0 0.00328462 0 0.000314908 0 0.000751789
internal_weight=0 599.902 90.6736 284.655 269.237 180.003 149.167 118.968 86.1146
internal_count=5071 4624 447 1941 1678 1017 797 618 436
is_linear=0
shrinkage=0.198533


Tree=38
num_leaves=11
num_cat=0
split_feature=14 17 17 17 17 17 17 17 17 17
split_gain=0.139382 0.603458 0.129429 0.294338 0.019135 0.125213 0.0156943 0.071088 0.00650927 0.00757101
threshold=1.5000000000000002 0.61237635150678649 0.49275362318840582 0.66022544283413864 0.2774327122153209 0.23050379572118704 -0.21854152288934894 0.033586381412468426 -0.93719806763285018 -0.49459397285484236
decision_type=2 2 2 2 2 2 2 2 2 2
left_child=2 -2 4 -4 5 6 8 -8 -1 -10
right_child=1 -3 3 -5 -6 -7 7 -9 9 -11
leaf_value=0 -0.02793548059822773 0 0.013545556095213003 0 -0.002473519653389023 0.011398708320962824 -0.0067734022547187526 0 0.0024198953604905645 0
leaf_weight=13.270049914717672 32.539669502526522 14.072117093950508 86.05377022922039 24.312543414533138 118.29218561947346 33.005085945129395 69.576924715191126 105.92232214659452 89.793558673933148 103.03826756775379
leaf_count=132 1043 191 430 135 608 171 467 580 738 576
internal_value=0 -0.0103193 0 0.0066504 0 0 0 -0.00185136 0 0.00113887
internal_weight=0 46.6118 643.265 110.366 532.898 414.606 381.601 175.499 206.102 192.832
internal_count=5071 1234 3837 565 3272 2664 2493 1047 1446 1314
is_linear=0
shrinkage=0.198533


Tree=39
num_leaves=16
num_cat=0
split_feature=4 17 1 17 17 18 18 18 17 17 18 4 17 18 17
split_gain=0.155771 0.596693 0.301179 0.114869 0.773102 0.356847 0.205867 0.765751 0.601148 0.190956 0.152779 0.0722467 0.158863 0.0523639 0.0506581
threshold=-0.59782608695652162 0.42097998619737759 1.0000000180025095e-35 -0.21854152288934894 -0.010582010582010503 0.586808337095999 -0.0036631370435643647 -0.15320360633293031 0.27375201288244772 -0.46790890269151136 -0.32861179486432551 0.88043478260869568 0.49275362318840582 -0.38653742517150463 0.16977225672877852
decision_type=2 2 2 2 2 2 2 2 2 2 2 2 2 2 2
left_child=13 2 3 9 -5 6 7 10 -8 -2 -6 12 -3 -1 -7
right_child=1 11 -4 4 5 14 8 -9 -10 -11 -12 -13 -14 -15 -16
leaf_value=0 -0.0093281477139927904 0 0 -0.042087616437936508 0 0 0.029034522836512144 -0.032284740179090075 0 0.0016811234046306043 0.011946533439976748 0 0.0087800114843965757 0.011403144520969322 -0.02391797761042996
leaf_weight=61.163779996335506 79.435156043618917 51.181748315691948 82.332313306629658 36.86646993458271 18.345380038022995 7.1238169930875328 32.753578213974833 23.978221680969 18.40299716219306 59.182672107592225 37.214395090937614 15.495535850524901 113.18699183315039 29.393026061356068 23.097865590825677
leaf_count=270 1184 270 471 370 85 119 218 110 91 423 176 192 629 177 286
internal_value=0 -0.00248734 -0.00801996 -0.0107054 -0.0146726 0 0 0 0.0120228 0 0 0 0.00410064 0.00501789 -0.0199893
internal_weight=0 598.597 418.733 336.401 197.783 160.916 130.695 79.538 51.1566 138.618 55.5598 179.864 164.369 90.5568 30.2217
internal_count=5071 4624 3533 3062 1455 1085 680 371 309 1607 261 1091 899 447 405
is_linear=0
shrinkage=0.198533


Tree=40
num_leaves=10
num_cat=0
split_feature=4 6 16 16 4 16 18 18 18
split_gain=0.138543 0.32799 0.73078 0.526116 0.260861 0.601744 1.01966 0.00369 0.0873076
threshold=0.90217391304347838 1.0000000180025095e-35 2.5000000000000004 1.0000000180025095e-35 -0.59782608695652162 1.0000000180025095e-35 -0.10046317199994172 0.55204858936452228 0.26902573663282703
decision_type=2 2 2 2 2 2 2 2 2
left_child=1 4 3 -3 -1 -6 -7 8 -8
right_child=-2 2 -4 -5 5 6 7 -9 -10
leaf_value=0 -0.015160528093913774 0 0 0.015820197091006905 0 -0.023842529419581562 0 0 0.012615069408231578
leaf_weight=70.723072588443756 18.779567977413535 65.84851910546422 44.358398070558906 239.97532134503126 41.554127797484398 127.57378353178501 39.067149754613638 22.438338883221149 17.558963425457478
leaf_count=343 389 536 353 1444 407 958 304 206 131
internal_value=0 0 0.00575572 0.0114251 -0.00189404 -0.00672324 -0.0128902 0 0.00153652
internal_weight=0 669.098 350.182 305.824 318.915 248.192 206.638 79.0645 56.6261
internal_count=5071 4682 2333 1980 2349 2006 1599 641 435
is_linear=0
shrinkage=0.198533


Tree=41
num_leaves=13
num_cat=0
split_feature=18 17 18 18 17 17 17 18 17 17 17 18
split_gain=0.196605 0.624843 0.545484 0.52427 0.443013 0.624162 0.0508594 0.0251363 0.634159 0.180492 0.166374 0.0174297
threshold=-0.062215069111671024 0.15504945939728559 0.21073597739487596 0.41028591403644205 0.56912813434552578 0.2774327122153209 0.30871865654474356 -0.38590384083196166 -0.21854152288934894 0.0041407867494824288 -0.58523119392684608 1.3127794689543675
decision_type=2 2 2 2 2 2 2 2 2 2 2 2
left_child=1 7 6 -4 5 -5 -2 -1 10 -10 -9 -7
right_child=2 -3 3 4 -6 11 -8 8 9 -11 -12 -13
leaf_value=0 -0.021349777281047425 0.016904696044873581 0.017826439384620099 0 0 -0.025537795096053171 0 0 -0.028491738093087516 0 0.0099052082571334608 0
leaf_weight=76.109283935278654 61.835351491346955 84.001381542533636 48.740662863478065 46.393266413360834 70.803936161100864 66.079885555431247 28.311150550842285 52.192806299775839 35.796181906014681 40.160275686532259 61.858808368444443 15.217608058825133
leaf_count=375 624 427 322 640 496 379 125 794 186 198 317 188
internal_value=0 0.00150044 -0.00450552 0 -0.00420225 -0.0125976 -0.017294 0 -0.00225413 -0.0179186 0 -0.023004
internal_weight=0 350.119 337.382 247.235 198.495 127.691 90.1465 266.117 190.008 75.9565 114.052 81.2975
internal_count=5071 2297 2774 2025 1703 1207 749 1870 1495 384 1111 567
is_linear=0
shrinkage=0.198533


Tree=42
num_leaves=14
num_cat=0
split_feature=18 18 15 18 18 16 12 18 18 18 18 18 18
split_gain=0.101208 0.420864 0.399401 0.323532 0.217009 0.139437 0.182167 0.136871 0.115631 0.0215992 0.0331048 0.0106826 0.0807434
threshold=-0.062215069111671024 0.21073597739487596 1.0000000180025095e-35 0.41028591403644205 0.79812692078010983 1.0000000180025095e-35 1.5000000000000002 0.48633788251744176 -0.39750498856635147 0.041751023202295484 0.14325560394424461 -0.1861354268319326 -0.10612901816275103
decision_type=2 2 2 2 2 2 2 2 2 2 2 2 2
left_child=2 9 5 -3 7 -1 8 -5 -7 -2 -11 -4 -13
right_child=1 3 11 4 -6 6 -8 -9 -10 10 -12 12 -14
leaf_value=0 0 0.014544337797529758 0.0098541581627124928 0 0 0 0 -0.015890952282662449 -0.013802717645841466 -0.024715468850068537 0 -0.0016440586002520608 0.012145117543156739
leaf_weight=16.816144352778792 41.133280966430902 48.974389160051942 164.67513380199671 17.857607301324606 124.56905590370297 17.90102131664753 17.495520461350679 55.559033453464508 85.479696217924356 31.728906504809856 16.70166240632534 31.331295315176249 15.931456377729772
leaf_count=163 368 322 906 120 1142 86 89 441 766 261 120 191 96
internal_value=0 -0.00328202 0.000935872 0 -0.00256844 0 -0.00660824 -0.0112332 -0.0108158 -0.0146413 -0.0198848 0.00860266 0
internal_weight=0 336.524 349.63 246.96 197.986 137.692 120.876 73.4166 103.381 89.5638 48.4306 211.938 47.2628
internal_count=5071 2774 2297 2025 1703 1104 941 561 852 749 381 1193 287
is_linear=0
shrinkage=0.198533


Tree=43
num_leaves=10
num_cat=0
split_feature=14 17 7 17 17 17 17 17 17
split_gain=0.0255477 0.366295 0.0202777 0.157874 0.152319 0.016912 0.161171 0.00166436 0.20842
threshold=1.5000000000000002 0.64918334483551876 1.0000000180025095e-35 -0.93535771796641354 0.2774327122153209 0.49275362318840582 0.66022544283413864 -0.21854152288934894 0.033586381412468426
decision_type=2 2 2 2 2 2 2 2 2
left_child=2 -2 7 -4 -5 -6 -7 -1 -9
right_child=1 -3 3 4 5 6 -8 8 -10
leaf_value=0 -0.019920333187672508 0 0 0.0080289597554562709 -0.001078835942856689 0.0086941401379416194 0 -0.01423372225532109 0
leaf_weight=147.56636951863766 33.941933063790202 11.227319803088902 16.607391579076648 197.08006808348 117.04537029191852 86.003294996917248 24.450566127896309 35.892504999414086 15.51390055939555
leaf_count=820 1076 158 169 1231 603 430 135 306 143
internal_value=0 -0.00448105 0 0.00133842 0.00404312 0 0.00213175 0 -0.00107863
internal_weight=0 45.1693 640.159 441.187 424.579 227.499 110.454 198.973 51.4064
internal_count=5071 1234 3837 2568 2399 1168 565 1269 449
is_linear=0
shrinkage=0.198533


Tree=44
num_leaves=6
num_cat=0
split_feature=6 9 16 16 16
split_gain=0.0257696 0.213062 0.603572 0.0547687 0.011263
threshold=1.0000000180025095e-35 1.0000000180025095e-35 2.5000000000000004 1.0000000180025095e-35 1.0000000180025095e-35
decision_type=2 2 2 2 2
left_child=3 2 4 -1 -2
right_child=1 -3 -4 -5 -6
leaf_value=0 0 0 0 -0.0033810089023130663 0.015129798928840565
leaf_weight=46.518894055858254 33.257466282695532 166.48738030716777 28.045209309086204 272.72000961564481 137.57340007834136
leaf_count=452 236 1482 173 1963 765
internal_value=0 0 0.00641836 -0.00176998 0.0135308
internal_weight=0 365.363 198.876 319.239 170.831
internal_count=5071 2656 1174 2415 1001
is_linear=0
shrinkage=0.198533


Tree=45
num_leaves=12
num_cat=0
split_feature=4 17 17 17 4 17 4 4 17 17 4
split_gain=0.126726 0.430661 0.360155 0.282159 0.181342 0.120219 0.969767 0.219796 0.183076 0.0732304 0.0233515
threshold=-0.076086956521739121 0.34828617437313103 0.56912813434552578 0.2774327122153209 -0.31521739130434778 -0.20289855072463764 -0.57608695652173902 -0.20652173913043476 -0.93535771796641354 0.057510927076144476 -0.53260869565217372
decision_type=2 2 2 2 2 2 2 2 2 2 2
left_child=1 5 3 9 -3 8 -7 10 -1 -2 -8
right_child=2 4 -4 -5 -6 6 7 -9 -10 -11 -12
leaf_value=0 -0.0060092483432233916 0.023584626123917578 0 -0.017793830999311071 0 0 0 0 0.0066243386376371501 0.0026280001459432897 -0.02406049530250454
leaf_weight=15.420630106702445 65.239812122657895 38.391336768865585 71.35665974766016 90.751218598335981 31.034917257726192 41.333119813352823 21.604307517409325 18.234750483185053 159.4622837472707 45.803080217912793 85.788269460201263
leaf_count=146 1200 199 499 615 138 230 100 106 1002 414 422
internal_value=0 6.5826e-05 -0.00423705 -0.00963334 0.015105 0 -0.00524966 -0.0181368 0 0 -0.021434
internal_weight=0 411.27 273.151 201.794 69.4263 341.843 166.96 125.627 174.883 111.043 107.393
internal_count=5071 2343 2728 2229 337 2006 858 628 1148 1614 522
is_linear=0
shrinkage=0.198533


Tree=46
num_leaves=14
num_cat=0
split_feature=18 18 17 18 17 17 9 18 18 18 18 18 18
split_gain=0.0436744 0.359991 0.308041 0.201109 0.340691 0.158493 0.0317765 0.577818 0.0139292 0.00774549 0.0106199 0.00523814 0.00298325
threshold=-0.062215069111671024 0.21073597739487596 0.15504945939728559 0.48633788251744176 0.56912813434552578 0.2774327122153209 1.0000000180025095e-35 -0.39912900359759373 1.3127794689543675 -0.39305533303231993 -0.38590384083196166 0.041751023202295484 0.41028591403644205
decision_type=2 2 2 2 2 2 2 2 2 2 2 2 2
left_child=2 11 6 12 5 -5 9 -8 -7 -1 -11 -2 -3
right_child=1 3 -4 4 -6 8 7 -9 -10 10 -12 -13 -14
leaf_value=0 0 0.011883799328564457 0.011748887046017406 0 0 -0.018216553974296786 0 -0.017474112226402869 0 0.0052261317256303164 0 -0.017423822751501273 0
leaf_weight=18.670219711959362 40.964748600497842 49.045641703531146 82.98113240301609 38.406603302806616 68.487963981926441 57.216824481263757 25.430545039474964 73.710237802937627 14.996530259028075 21.524468287825584 126.22843470610678 48.108629114925861 17.806150339543819
leaf_count=78 368 322 427 568 486 341 121 932 188 102 637 381 120
internal_value=0 -0.00224996 2.31493e-05 0 -0.00150095 -0.0109431 0 -0.00346832 -0.0161326 0 0.00141381 -0.0130064 0.0102264
internal_weight=0 335.033 348.545 245.96 179.108 110.62 265.564 99.1408 72.2134 166.423 147.753 89.0734 66.8518
internal_count=5071 2774 2297 2025 1583 1097 1870 1053 529 817 739 749 442
is_linear=0
shrinkage=0.198533


Tree=47
num_leaves=8
num_cat=0
split_feature=4 7 4 12 4 4 4
split_gain=0.0692545 0.105307 0.53769 0.0357395 0.126645 0.0472851 0.00647652
threshold=0.90217391304347838 1.0000000180025095e-35 -0.59782608695652162 1.5000000000000002 -0.31521739130434778 -0.51086956521739124 0.141304347826087
decision_type=2 2 2 2 2 2 2
left_child=1 6 -3 4 -4 -5 -1
right_child=-2 2 3 5 -6 -7 -8
leaf_value=-0.0012178295056921135 -0.010828495140951777 0.02069362391952026 -0.0075493955259672476 0 0 0.0038478561341632207 0
leaf_weight=167.14173508062959 18.300623117014766 54.204532742500305 90.163410594686866 16.736797533929348 106.79917899519205 186.95107197389007 41.778535477817059
leaf_count=955 389 297 584 87 1117 1000 642
internal_value=0 0 0.00300443 0 -0.00146045 0.00216488 0
internal_weight=0 663.775 454.855 400.65 196.963 203.688 208.92
internal_count=5071 4682 3085 2788 1701 1087 1597
is_linear=0
shrinkage=0.198533


Tree=48
num_leaves=6
num_cat=0
split_feature=15 6 13 13 14
split_gain=0.00768375 0.119976 0.942084 0.118027 0.0935728
threshold=1.0000000180025095e-35 1.0000000180025095e-35 1.0000000180025095e-35 1.0000000180025095e-35 1.0000000180025095e-35
decision_type=2 2 2 2 2
left_child=4 3 -3 -2 -1
right_child=1 2 -4 -5 -6
leaf_value=0 0 0 0.015918127788455073 -0.0070376710768532405 -0.0084444402332220139
leaf_weight=166.67167961969972 104.99246043711901 109.97279814071953 160.22850744612515 88.947413401678205 50.989787649363279
leaf_count=932 594 644 1115 645 1141
internal_value=0 0 0.00414545 0 -0.00116632
internal_weight=0 464.141 270.201 193.94 217.661
internal_count=5071 2998 1759 1239 2073
is_linear=0
shrinkage=0.198533


Tree=49
num_leaves=9
num_cat=0
split_feature=4 15 1 4 4 4 4 4
split_gain=0.0732216 0.210722 0.0593706 0.0275641 0.122542 0.0562403 0.102763 0.00458832
threshold=-0.076086956521739121 1.0000000180025095e-35 1.0000000180025095e-35 0.77173913043478282 0.90217391304347838 0.55434782608695665 0.18478260869565219 0.31521739130434789
decision_type=2 2 2 2 2 2 2 2
left_child=1 2 -1 5 -5 6 -2 -8
right_child=3 -3 -4 4 -6 -7 7 -9
leaf_value=-0.0041475634066406716 -0.0065007879523403186 0.0055675401808987892 0 0.0082951618012795641 -0.010153911300350132 -0.010780840669392961 0.0037397079534050954 0
leaf_weight=131.05577967688441 82.260204322636127 262.96766557916999 15.654773473739622 30.450379917398095 18.222479095682502 48.272368079051375 33.957551829516888 58.938285561278462
leaf_count=887 594 1378 78 428 389 504 281 532
internal_value=0 0 0 -0.00322737 0 -0.00417039 0 0.00192767
internal_weight=0 409.678 146.711 272.101 48.6729 223.428 175.156 92.8958
internal_count=5071 2343 965 2728 817 1911 1407 813
is_linear=0
shrinkage=0.198533


Tree=50
num_leaves=9
num_cat=0
split_feature=18 18 18 18 18 18 18 18
split_gain=0.0449268 0.296716 0.236062 0.134032 0.205876 0.0176568 0.0155084 0.00369086
threshold=-0.062215069111671024 0.21073597739487596 -0.10612901816275103 0.48633788251744176 0.76795519757635788 -0.34056978895087164 -0.39163523020230995 0.55204858936452228
decision_type=2 2 2 2 2 2 2 2
left_child=2 -2 5 -3 7 6 -1 -5
right_child=1 3 -4 4 -6 -7 -8 -9
leaf_value=0 -0.011993459926382129 0.0082967163145356172 0.018895509656125357 0 0 -0.0020318923721719417 0.0023675916488320034 -0.014292300204265227
leaf_weight=58.024575121700764 88.636400956660509 66.882424399256706 21.080921513959765 13.10680249147117 128.63768245652318 163.58915858529508 104.0689765419811 37.104511214420199
leaf_count=272 749 442 173 100 1182 1222 630 301
internal_value=0 -0.00228435 0 0 -0.00135251 0 0 -0.0123743
internal_weight=0 334.368 346.764 245.731 178.849 325.683 162.094 50.2113
internal_count=5071 2774 2297 2025 1583 2124 902 401
is_linear=0
shrinkage=0.198533


Tree=51
num_leaves=8
num_cat=0
split_feature=4 1 4 4 4 4 4
split_gain=0.0423683 0.258736 0.0625883 0.0865254 0.00453672 0.0889111 0.00274112
threshold=0.55434782608695665 1.0000000180025095e-35 0.77173913043478282 0.90217391304347838 0.18478260869565219 -0.42391304347826081 0.076086956521739149
decision_type=2 2 2 2 2 2 2
left_child=1 4 -2 -4 5 -1 -7
right_child=2 -3 3 -5 -6 6 -8
leaf_value=0 -0.0088398652068858614 0.0090350590049426936 0.0070471525791700462 -0.0084491633342590154 0 -0.0047705816907573492 0
leaf_weight=211.17733676359057 47.96088720113039 119.94912961870432 30.592093948274851 18.048189824447036 69.143842129036784 161.61027429811656 22.278934067115188
leaf_count=1115 504 606 428 389 684 1149 196
internal_value=0 0 -0.0040546 0 0 -0.000668573 -0.00441609
internal_weight=0 584.16 96.6012 48.6403 464.21 395.067 183.889
internal_count=5071 3750 1321 817 3144 2460 1345
is_linear=0
shrinkage=0.198533


Tree=52
num_leaves=15
num_cat=0
split_feature=18 6 17 18 18 18 18 18 17 18 18 18 18 18
split_gain=0.0219098 0.221233 0.444494 0.203013 0.0505206 0.161658 0.033526 0.0299404 0.0121739 0.227006 0.167763 0.0208225 0.00453552 0.00303836
threshold=-0.062215069111671024 1.0000000180025095e-35 -0.68138946399815958 0.14325560394424461 0.48633788251744176 0.76795519757635788 0.21073597739487596 0.041751023202295484 0.094317920404876951 -0.40045443290560312 -0.15320360633293031 -0.38590384083196166 0.41028591403644205 0.25636861499919894
decision_type=2 2 2 2 2 2 2 2 2 2 2 2 2 2
left_child=1 8 -3 7 6 -6 -5 -2 9 -1 11 -11 13 -8
right_child=3 2 -4 4 5 -7 12 -9 -10 10 -12 -13 -14 -15
leaf_value=0 0 0 0.016299012760782151 0 -0.01083759107782631 0 0 -0.016680480907325466 0 0 0 -0.012703485195990322 0 0.0092792817132123246
leaf_weight=18.200096666812897 40.704182518646121 28.384889505803585 93.793986972421408 16.437700465321541 50.008186157792807 128.49017599225044 13.227684890851377 31.124943922273815 52.357671562582254 42.365510787814856 11.917741682380436 99.49897475913167 17.833637561649084 35.954616915434599
leaf_count=84 368 220 512 120 401 1182 80 261 251 222 167 841 120 242
internal_value=0 0 0.00828106 -0.00159664 0 -0.000687236 0.00464086 -0.0107435 0 -0.00164668 -0.00770588 -0.0104513 0.006694 0.00792873
internal_weight=0 346.519 122.179 333.781 261.952 178.498 83.4536 71.8291 224.34 171.982 153.782 141.864 67.0159 49.1823
internal_count=5071 2297 732 2774 2145 1583 562 629 1565 1314 1230 1063 442 322
is_linear=0
shrinkage=0.198533


Tree=53
num_leaves=8
num_cat=0
split_feature=4 4 4 1 4 4 4
split_gain=0.0287279 0.0324843 0.0693931 0.170044 0.000334333 0.0563389 0.0037898
threshold=0.90217391304347838 0.77173913043478282 0.55434782608695665 1.0000000180025095e-35 0.18478260869565219 -0.42391304347826081 0.076086956521739149
decision_type=2 2 2 2 2 2 2
left_child=1 2 3 4 5 -1 -7
right_child=-2 -3 -4 -5 -6 6 -8
leaf_value=0 -0.0070341907413689602 0.0059893377446718432 -0.0072057268929463097 0.0073289325633595116 0 -0.0037873243205121688 0
leaf_weight=210.85552828758955 17.90537953749299 30.713755073957145 47.698502033017576 119.80054786987603 69.051936954259872 161.16695252340287 22.248948521912098
leaf_count=1115 389 428 504 606 684 1149 196
internal_value=0 0 0 0 0 -0.000181677 -0.00344339
internal_weight=0 661.536 630.822 583.124 463.323 394.271 183.416
internal_count=5071 4682 4254 3750 3144 2460 1345
is_linear=0
shrinkage=0.198533


Tree=54
num_leaves=8
num_cat=0
split_feature=4 4 4 4 4 4 1
split_gain=0.0275459 0.0354124 0.0274442 0.0285651 0.0428489 0.00657292 0.000721444
threshold=-0.076086956521739121 0.18478260869565219 0.55434782608695665 0.77173913043478282 0.90217391304347838 0.31521739130434789 1.0000000180025095e-35
decision_type=2 2 2 2 2 2 2
left_child=6 -2 5 -4 -5 -3 -1
right_child=1 2 3 4 -6 -7 -8
leaf_value=0 -0.0053442309358003289 0.0039854235122090218 -0.005935001943502864 0.0049465808315337836 -0.0059721880044629532 0 0.00061378076985804783
leaf_weight=337.6756353136152 81.906438189558685 33.931704709306359 47.503405379131436 30.839665241539478 17.800167709589005 58.913946706801653 70.502523392438889
leaf_count=1988 594 281 504 428 389 532 355
internal_value=0 -0.00198383 0 -0.00267345 0 0.0019156 0
internal_weight=0 270.895 188.989 96.1432 48.6398 92.8457 408.178
internal_count=5071 2728 2134 1321 817 813 2343
is_linear=0
shrinkage=0.198533


Tree=55
num_leaves=13
num_cat=0
split_feature=18 18 18 18 18 18 18 18 18 18 18 18
split_gain=0.00587143 0.158993 0.150669 0.0432237 0.114137 0.028749 0.0151102 0.00548468 0.00414351 0.000698921 0.00851765 0.000518074
threshold=-0.062215069111671024 0.14325560394424461 -0.10612901816275103 0.48633788251744176 0.79812692078010983 0.21073597739487596 -0.20067873632695857 0.041751023202295484 0.55204858936452228 -0.39163523020230995 -0.34056978895087164 0.423809662525307
decision_type=2 2 2 2 2 2 2 2 2 2 2 2
left_child=2 7 6 5 8 -3 9 -2 -5 -1 -11 -7
right_child=1 3 -4 4 -6 11 -8 -9 -10 10 -12 -13
leaf_value=0 0 0 0.015095640561079095 0 0 0.0070556727121790352 -0.0032446382401363576 -0.013669160888538213 -0.010019132131956444 0.0018276300236067164 0 0
leaf_weight=58.002008356153965 40.65053191408515 16.412771100178361 21.081564759835601 13.041973415762184 123.54933981597424 52.415556859225035 51.592981419526041 30.95624119695276 41.463650582358241 103.77811487577856 111.25320960581303 14.626624634489415
leaf_count=272 368 120 173 100 1142 342 420 261 341 630 802 100
internal_value=0 -0.000827341 0 0 0 0.00438919 0 -0.00921132 -0.00869647 0 0.000353855 0.00627605
internal_weight=0 333.117 345.708 261.51 178.055 83.455 324.626 71.6068 54.5056 273.033 215.031 67.0422
internal_count=5071 2774 2297 2145 1583 562 2124 629 441 1704 1432 442
is_linear=0
shrinkage=0.198533


Tree=56
num_leaves=8
num_cat=0
split_feature=1 17 17 17 17 17 17
split_gain=0.00341034 0.16058 0.0543103 0.010608 9.00303e-05 0.0270227 0.00784163
threshold=1.0000000180025095e-35 0.0041407867494824288 -0.92523579480101203 -0.0013802622498273885 0.17253278122843344 0.42097998619737759 0.27375201288244772
decision_type=2 2 2 2 2 2 2
left_child=1 2 -1 -2 -3 6 -6
right_child=3 4 -4 -5 5 -7 -8
leaf_value=0 0.0032431241207980395 0.00022597168310091716 -0.0064057510581886001 0 0 0 -0.0049039479917641765
leaf_weight=39.013504201546311 34.774082038551569 64.514622939750552 204.71178055554628 109.84763737209141 46.829563960433006 126.78755306825042 52.162749413400888
leaf_count=575 220 438 1747 602 322 810 357
internal_value=0 -0.000499387 -0.005098 0 0 0 -0.00320066
internal_weight=0 534.02 243.725 144.622 290.294 225.78 98.9923
internal_count=5071 4249 2322 822 1927 1489 679
is_linear=0
shrinkage=0.198533


Tree=57
num_leaves=13
num_cat=0
split_feature=4 18 4 18 18 18 4 18 18 18 4 4
split_gain=0.0132485 0.121189 0.767145 0.194819 0.0526978 0.0400241 0.086538 0.0262034 0.0852936 0.0175589 0.00976934 0.0093008
threshold=0.90217391304347838 0.86034927247039628 0.77173913043478282 0.55204858936452228 0.76795519757635788 0.21073597739487596 -0.14130434782608695 0.041751023202295484 -0.39163523020230995 0.48633788251744176 0.55434782608695665 0.46739130434782611
decision_type=2 2 2 2 2 2 2 2 2 2 2 2
left_child=1 3 10 5 -5 6 7 8 -1 -7 -3 -8
right_child=-2 2 -4 4 -6 9 11 -9 -10 -11 -12 -13
leaf_value=0 -0.0048003343593218256 0 0.033716812961793532 -0.015426614679630862 0 0.0056132464928640227 -0.0087271936720779118 0 0.0037917012719801031 0 -0.0030197507377688255 0
leaf_weight=57.990918025374413 17.682410310022533 35.60420329682529 25.820763321593404 36.015725651755929 13.619968630373476 67.053897459059954 44.618118721991777 23.261493060737848 300.69592077098787 12.981761945411561 37.247720411047339 5.5899534486234179
leaf_count=272 389 204 275 289 114 441 599 106 1771 99 284 228
internal_value=0 0 0.00678852 0 -0.0118575 0 0 0 0.00168523 0.00430771 0 -0.00786171
internal_weight=0 660.5 98.6727 561.828 49.6357 512.192 432.156 381.948 358.687 80.0357 72.8519 50.2081
internal_count=5071 4682 763 3919 403 3516 2976 2149 2043 540 488 827
is_linear=0
shrinkage=0.198533


Tree=58
num_leaves=7
num_cat=0
split_feature=18 17 17 18 18 18
split_gain=0.00232597 0.110366 0.177371 0.107 0.0115658 0.00527534
threshold=-0.062215069111671024 0.5820105820105822 0.2774327122153209 -0.10612901816275103 -0.34056978895087164 -0.39163523020230995
decision_type=2 2 2 2 2 2
left_child=3 2 -2 4 5 -1
right_child=1 -3 -4 -5 -6 -7
leaf_value=0 0 0 -0.0092454534494219327 0.012722363522313937 -0.001649231995124471 0.0013830430245160036
leaf_weight=57.990918025374413 128.35250775422901 75.744673628360033 128.77324127219617 21.077369455248117 162.62183598708361 103.72456787526608
leaf_count=272 1465 516 793 173 1222 630
internal_value=0 -0.000520922 -0.00411663 0 0 0
internal_weight=0 332.87 257.126 345.415 324.337 161.715
internal_count=5071 2774 2258 2297 2124 902
is_linear=0
shrinkage=0.198533


Tree=59
num_leaves=7
num_cat=0
split_feature=17 17 17 17 17 17
split_gain=0.000207259 0.0263089 0.0191625 0.0019017 0.000799207 1.85119e-07
threshold=0.42097998619737759 0.7218771566597656 -0.21854152288934894 -0.46790890269151136 0.49275362318840582 -0.92523579480101203
decision_type=2 2 2 2 2 2
left_child=2 4 3 5 -2 -1
right_child=1 -3 -4 -5 -6 -7
leaf_value=0 0 0 -0.0016292668118988698 0.00091116744297908413 0.0030483087707248819 -8.7579314594025705e-06
leaf_weight=40.37564910762012 51.81213429197669 17.706442754715681 282.63066240027547 85.304827066138387 110.00737707689404 90.150122910737991
leaf_count=593 290 166 1963 549 646 864
internal_value=0 0 -0.000127384 0 0.00249338 0
internal_weight=0 179.526 498.461 215.831 161.82 130.526
internal_count=5071 1102 3969 2006 936 1457
is_linear=0
shrinkage=0.198533


Tree=60
num_leaves=5
num_cat=0
split_feature=4 4 4 4
split_gain=0.0209102 0.0292331 0.0214578 0.00177274
threshold=0.55434782608695665 0.18478260869565219 -0.076086956521739121 0.31521739130434789
decision_type=2 2 2 2
left_child=1 2 -1 -3
right_child=-2 3 -4 -5
leaf_value=0 -0.0028546336926516878 0.0056115555204909497 -0.0031271136341306412 0
leaf_weight=407.84231963381171 96.160629227757454 33.830738104879856 81.510485564358532 58.679246442392468
leaf_count=2343 1321 281 594 532
internal_value=0 0 0 0.00343789
internal_weight=0 581.863 489.353 92.51
internal_count=5071 3750 2937 813
is_linear=0
shrinkage=0.198533


Tree=61
num_leaves=6
num_cat=0
split_feature=4 4 4 4 4
split_gain=0.0137919 0.0230027 0.0141974 0.000209027 0.00706792
threshold=0.55434782608695665 0.18478260869565219 -0.076086956521739121 0.77173913043478282 0.90217391304347838
decision_type=2 2 2 2 2
left_child=1 2 -1 -2 -5
right_child=3 -3 -4 4 -6
leaf_value=0 -0.0032557992803294088 0.0030484030207616405 -0.0025449407586302713 0.00037749619716389199 -0.0034834412009502424
leaf_weight=407.84231963381171 47.080419465899467 92.587746037170291 81.421998241916299 31.348004444502294 17.552628437057137
leaf_count=2343 504 813 594 428 389
internal_value=0 3.35899e-06 0 -0.00232042 0
internal_weight=0 581.852 489.264 95.9811 48.9006
internal_count=5071 3750 2937 1321 817
is_linear=0
shrinkage=0.198533


Tree=62
num_leaves=5
num_cat=0
split_feature=4 4 4 4
split_gain=0.00947929 0.0151269 0.00939167 0.00145595
threshold=0.55434782608695665 0.18478260869565219 -0.076086956521739121 0.31521739130434789
decision_type=2 2 2 2
left_child=1 2 -1 -3
right_child=-2 3 -4 -5
leaf_value=0 -0.0019249860219456387 0.0040975156993281539 -0.0020707403962797184 0
leaf_weight=407.84231963381171 95.849946372210979 33.950715826824307 81.349906168878078 58.766297190450132
leaf_count=2343 1321 281 594 532
internal_value=0 0 0 0.00247041
internal_weight=0 581.909 489.192 92.717
internal_count=5071 3750 2937 813
is_linear=0
shrinkage=0.198533


Tree=63
num_leaves=6
num_cat=0
split_feature=4 4 4 4 4
split_gain=0.00624822 0.0118534 0.00621161 0.000923001 0.00440595
threshold=0.55434782608695665 0.18478260869565219 -0.076086956521739121 0.77173913043478282 0.90217391304347838
decision_type=2 2 2 2 2
left_child=1 2 -1 -2 -5
right_child=3 -3 -4 4 -6
leaf_value=0 -0.0023332564410928213 0.0021862017039147971 -0.0016846275393133869 0.00064305544806338697 -0.0026582537285766141
leaf_weight=407.84231963381171 46.940727930516005 92.773728203959763 81.291195016354322 31.315271526575089 17.473042816855013
leaf_count=2343 504 813 594 428 389
internal_value=0 0 0 -0.00156379 0
internal_weight=0 581.907 489.134 95.729 48.7883
internal_count=5071 3750 2937 1321 817
is_linear=0
shrinkage=0.198533


Tree=64
num_leaves=7
num_cat=0
split_feature=4 4 4 4 4 4
split_gain=0.00429702 0.0077982 0.00410776 0.00111941 0.000538137 0.003145
threshold=0.55434782608695665 0.18478260869565219 -0.076086956521739121 0.31521739130434789 0.77173913043478282 0.90217391304347838
decision_type=2 2 2 2 2 2
left_child=1 2 -1 -3 -2 -6
right_child=4 3 -4 -5 5 -7
leaf_value=0 -0.0019170537098067682 0.0030014495203145113 -0.0013703285336913167 0 0.0005326792826898329 -0.0022519097900290624
leaf_weight=407.84231963381171 46.877852184697986 34.037676740437746 81.243397052399814 58.828725910745561 31.328871234320104 17.434035105630755
leaf_count=2343 504 281 594 532 428 389
internal_value=0 0 0 0.00177239 -0.0012974 0
internal_weight=0 581.952 489.086 92.8664 95.6408 48.7629
internal_count=5071 3750 2937 813 1321 817
is_linear=0
shrinkage=0.198533


Tree=65
num_leaves=7
num_cat=0
split_feature=4 4 4 4 4 4
split_gain=0.00295622 0.00607721 0.00271617 0.00030316 0.00224495 1.08523e-05
threshold=0.55434782608695665 0.18478260869565219 -0.076086956521739121 0.77173913043478282 0.90217391304347838 0.31521739130434789
decision_type=2 2 2 2 2 2
left_child=1 2 -1 -2 -5 -3
right_child=3 5 -4 4 -6 -7
leaf_value=0 -0.0015747558931781445 0.0024786532111901191 -0.0011145471698660381 0.00044127428468574461 -0.0019072866448033923 0
leaf_weight=407.84231963381171 46.826209385879338 34.079184964299202 81.204494433477521 31.340139385312796 17.401046272367239 58.828725910745561
leaf_count=2343 504 281 594 428 389 532
internal_value=0 0 0 -0.00107651 0 0.00156431
internal_weight=0 581.955 489.047 95.5674 48.7412 92.9079
internal_count=5071 3750 2937 1321 817 813
is_linear=0
shrinkage=0.198533


Tree=66
num_leaves=6
num_cat=0
split_feature=4 4 4 4 4
split_gain=0.00203459 0.00481668 0.00179584 0.000162181 0.0016025
threshold=0.55434782608695665 0.18478260869565219 -0.076086956521739121 0.77173913043478282 0.90217391304347838
decision_type=2 2 2 2 2
left_child=1 2 -1 -2 -5
right_child=3 -3 -4 4 -6
leaf_value=0 -0.0012933497749872641 0.0013924127269162852 -0.00090642935522396867 0.00036557151297756535 -0.0016151194864468645
leaf_weight=407.84231963381171 46.783799452707171 92.942174806259573 81.172838111408055 31.349475314840674 17.373146041296422
leaf_count=2343 504 813 594 428 389
internal_value=0 0 0 -0.000893346 0
internal_weight=0 581.957 489.015 95.5064 48.7226
internal_count=5071 3750 2937 1321 817
is_linear=0
shrinkage=0.198533


Tree=67
num_leaves=7
num_cat=0
split_feature=4 4 4 4 4 4
split_gain=0.00140087 0.00317004 0.00118726 7.95142e-05 0.00114395 6.32131e-05
threshold=0.55434782608695665 0.18478260869565219 -0.076086956521739121 0.77173913043478282 0.90217391304347838 0.31521739130434789
decision_type=2 2 2 2 2 2
left_child=1 2 -1 -2 -5 -3
right_child=3 5 -4 4 -6 -7
leaf_value=0 -0.0010620783064943082 0.0018050899473416749 -0.00073712053818425114 0.00030286785618082856 -0.0013675056635297235 0
leaf_weight=407.84231963381171 46.748975882306695 34.132691474631429 81.147083204239607 31.357211050577462 17.3495485605672 58.868486758321524
leaf_count=2343 504 281 594 428 389 532
internal_value=0 0 0 -0.000741462 0 0.00112926
internal_weight=0 581.991 488.989 95.4557 48.7068 93.0012
internal_count=5071 3750 2937 1321 817 813
is_linear=0
shrinkage=0.198533


Tree=68
num_leaves=6
num_cat=0
split_feature=4 4 4 4 4
split_gain=0.000964944 0.00250701 0.000784878 3.255e-05 0.000816643
threshold=0.55434782608695665 0.18478260869565219 -0.076086956521739121 0.77173913043478282 0.90217391304347838
decision_type=2 2 2 2 2
left_child=1 2 -1 -2 -5
right_child=3 -3 -4 4 -6
leaf_value=0 -0.00087205667799498325 0.0010041207913166806 -0.00059940296031980834 0.00025092772273776999 -0.0011577068397127612
leaf_weight=407.84231963381171 46.72038487624377 93.026117771863937 81.126132288947701 31.363620706833899 17.32958943862468
leaf_count=2343 504 813 594 428 389
internal_value=0 0 0 -0.000615506 0
internal_weight=0 581.995 488.968 95.4136 48.6932
internal_count=5071 3750 2937 1321 817
is_linear=0
shrinkage=0.198533


Tree=69
num_leaves=7
num_cat=0
split_feature=4 4 4 4 4 4
split_gain=0.000664965 0.00165028 0.000518842 7.20037e-05 7.09049e-06 0.000583016
threshold=0.55434782608695665 0.18478260869565219 -0.076086956521739121 0.31521739130434789 0.77173913043478282 0.90217391304347838
decision_type=2 2 2 2 2 2
left_child=1 2 -1 -3 -2 -6
right_child=4 3 -4 -5 5 -7
leaf_value=0 -0.00071596317017437244 0.0013167864906168205 -0.00048739187995034555 0 0.00020790337709663474 -0.00097999185982846769
leaf_weight=407.84231963381171 46.696912714280188 34.171500844880939 81.109091470018029 58.897159418091178 31.368931687436998 17.312707186676562
leaf_count=2343 504 281 594 532 428 389
internal_value=0 0 0 0.000814502 -0.000511042 0
internal_weight=0 582.02 488.951 93.0687 95.3786 48.6816
internal_count=5071 3750 2937 813 1321 817
is_linear=0
shrinkage=0.198533


Tree=70
num_leaves=4
num_cat=0
split_feature=4 4 4
split_gain=0.000458453 0.00130139 0.000342963
threshold=0.55434782608695665 0.18478260869565219 -0.076086956521739121
decision_type=2 2 2
left_child=1 2 -1
right_child=-2 -3 -4
leaf_value=0 -0.00042439240958744729 0.00072323183700740204 -0.00039629560401438762
leaf_weight=407.84231963381171 95.349403814412653 93.086845941841602 81.095232220366597
leaf_count=2343 1321 813 594
internal_value=0 0 0
internal_weight=0 582.024 488.938
internal_count=5071 3750 2937
is_linear=0
shrinkage=0.198533


Tree=71
num_leaves=7
num_cat=0
split_feature=4 4 4 4 4 4
split_gain=0.000330055 0.000230845 0.000689898 0.000226697 6.52947e-05 0.000333211
threshold=0.90217391304347838 0.18478260869565219 0.31521739130434789 -0.076086956521739121 0.77173913043478282 0.55434782608695665
decision_type=2 2 2 2 2 2
left_child=1 3 -3 -1 5 -4
right_child=-2 2 4 -5 -6 -7
leaf_value=0 -0.00076428030207274496 0.00096244620513337474 0 -0.00032221577675763113 0.00024502416681338086 -0.00051174962034159703
leaf_weight=407.84231963381171 17.292245876975358 34.199673010036349 58.917811207473278 81.083961514756083 31.364349599927664 46.66622394323349
leaf_count=2343 389 281 532 594 428 504
internal_value=0 0 0.000227289 0 0 -5.95188e-05
internal_weight=0 660.074 171.148 488.926 136.948 105.584
internal_count=5071 4682 1745 2937 1464 1036
is_linear=0
shrinkage=0.198533


Tree=72
num_leaves=6
num_cat=0
split_feature=4 4 4 4 4
split_gain=0.000236289 0.000194122 0.000479021 0.000269157 0.000149844
threshold=0.90217391304347838 0.18478260869565219 0.55434782608695665 0.77173913043478282 -0.076086956521739121
decision_type=2 2 2 2 2
left_child=1 4 -3 -4 -1
right_child=-2 2 3 -5 -6
leaf_value=0 -0.0006468296003340865 0.00052003176322916803 -0.00042007091474562379 0.00020300839014250705 -0.00026197906411172973
leaf_weight=407.84231963381171 17.281119047664106 93.130772326141596 46.652453977614641 31.369535691104829 81.074796380475163
leaf_count=2343 389 813 504 428 594
internal_value=0 0 0.000208426 0 0
internal_weight=0 660.07 171.153 78.022 488.917
internal_count=5071 4682 1745 932 2937
is_linear=0
shrinkage=0.198533


Tree=73
num_leaves=7
num_cat=0
split_feature=4 4 4 4 4 4
split_gain=0.000169154 0.00012722 0.000367199 9.9041e-05 2.98285e-05 0.000151968
threshold=0.90217391304347838 0.18478260869565219 0.31521739130434789 -0.076086956521739121 0.77173913043478282 0.55434782608695665
decision_type=2 2 2 2 2 2
left_child=1 3 -3 -1 5 -4
right_child=-2 2 4 -5 -6 -7
leaf_value=0 -0.00054739495628618542 0.00070508433792981632 0 -0.00021299703421314803 0.00016820497614250841 -0.00034480127943199143
leaf_weight=407.84231963381171 17.271706694737077 34.220140228047967 58.932660600170493 81.067343833856285 31.373832924291492 46.641151597723365
leaf_count=2343 389 281 532 594 428 504
internal_value=0 0 0.000168722 0 0 -3.64858e-05
internal_weight=0 660.077 171.168 488.91 136.948 105.574
internal_count=5071 4682 1745 2937 1464 1036
is_linear=0
shrinkage=0.198533


Tree=74
num_leaves=6
num_cat=0
split_feature=4 4 4 4 4
split_gain=0.000121089 0.000105571 0.000240967 0.00012279 6.54617e-05
threshold=0.90217391304347838 0.18478260869565219 0.55434782608695665 0.77173913043478282 -0.076086956521739121
decision_type=2 2 2 2 2
left_child=1 4 -3 -4 -1
right_child=-2 2 3 -5 -6
leaf_value=0 -0.00046322253227545587 0.00037306226840929925 -0.00028300617727575189 0.00013936867651862393 -0.0001731708950662409
leaf_weight=407.84231963381171 17.263744674623013 93.162533514201641 46.631875094026327 31.377393620088696 81.061284151859581
leaf_count=2343 389 813 504 428 594
internal_value=0 0 0.000153696 0 0
internal_weight=0 660.075 171.172 78.0093 488.904
internal_count=5071 4682 1745 932 2937
is_linear=0
shrinkage=0.198533


Tree=75
num_leaves=7
num_cat=0
split_feature=4 4 4 4 4 4
split_gain=8.66786e-05 6.92289e-05 0.000197711 4.32665e-05 1.38366e-05 6.91016e-05
threshold=0.90217391304347838 0.18478260869565219 0.31521739130434789 -0.076086956521739121 0.77173913043478282 0.55434782608695665
decision_type=2 2 2 2 2 2
left_child=1 3 -3 -1 5 -4
right_child=-2 2 4 -5 -6 -7
leaf_value=0 -0.0003919759505019633 0.00051798639901275167 0 -0.00014078932519635863 0.00011547791239198544 -0.00023227869045750534
leaf_weight=407.84231963381171 17.257009220309556 34.235022153705359 58.943313241004944 81.056357086636126 31.380344073288143 46.624261375516653
leaf_count=2343 389 281 532 594 428 504
internal_value=0 0 0.000124457 0 0 -2.33967e-05
internal_weight=0 660.082 171.183 488.899 136.948 105.568
internal_count=5071 4682 1745 2937 1464 1036
is_linear=0
shrinkage=0.198533


Tree=76
num_leaves=7
num_cat=0
split_feature=4 4 4 4 4 4
split_gain=6.2046e-05 5.6655e-05 0.000125728 2.85959e-05 8.48997e-06 4.75321e-05
threshold=0.90217391304347838 0.18478260869565219 0.31521739130434789 -0.076086956521739121 0.77173913043478282 0.55434782608695665
decision_type=2 2 2 2 2 2
left_child=1 3 -3 -1 5 -4
right_child=-2 2 4 -5 -6 -7
leaf_value=0 -0.00033167741655082086 0.00042811873375107803 0 -0.00011446062647701699 9.568438230352464e-05 -0.00019063970497771606
leaf_weight=407.84231963381171 17.251311532221735 34.242171037942171 58.943313241004944 81.052351193502545 31.38278887514025 46.6180126555264
leaf_count=2343 389 281 532 594 428 504
internal_value=0 0 0.000112588 0 0 -3.94902e-06
internal_weight=0 660.081 171.186 488.895 136.944 105.561
internal_count=5071 4682 1745 2937 1464 1036
is_linear=0
shrinkage=0.198533


Tree=77
num_leaves=6
num_cat=0
split_feature=4 4 4 4 4
split_gain=4.4412e-05 4.71369e-05 9.29322e-05 3.7842e-05 1.89002e-05
threshold=0.90217391304347838 0.18478260869565219 0.55434782608695665 0.77173913043478282 -0.076086956521739121
decision_type=2 2 2 2 2
left_child=1 4 -3 -4 -1
right_child=-2 2 3 -5 -6
leaf_value=0 -0.0002806442777190797 0.00023714458266188343 -0.00015646069034098056 7.9284773026553503e-05 -9.3056299707798752e-05
leaf_weight=407.84231963381171 17.246491410769522 93.191392458975315 46.612884240224957 31.38481468334794 81.049094346351922
leaf_count=2343 389 813 504 428 594
internal_value=0 0 0.000102695 0 0
internal_weight=0 660.081 171.189 77.9977 488.891
internal_count=5071 4682 1745 932 2937
is_linear=0
shrinkage=0.198533


Tree=78
num_leaves=7
num_cat=0
split_feature=4 4 4 4 4 4
split_gain=3.17895e-05 3.09396e-05 6.63956e-05 1.24921e-05 3.98197e-06 2.15807e-05
threshold=0.90217391304347838 0.18478260869565219 0.31521739130434789 -0.076086956521739121 0.77173913043478282 0.55434782608695665
decision_type=2 2 2 2 2 2
left_child=1 3 -3 -1 5 -4
right_child=-2 2 4 -5 -6 -7
leaf_value=0 -0.00023745860110906694 0.00031272031350651643 0 -7.5654897585063842e-05 6.5695580895651717e-05 -0.00012840794792577846
leaf_weight=407.84231963381171 17.242413814179599 34.251351814717054 58.950084669515491 81.046446159482002 31.386493329890072 46.608675433322787
leaf_count=2343 389 281 532 594 428 504
internal_value=0 0 8.31988e-05 0 0 0
internal_weight=0 660.085 171.197 488.889 136.945 105.559
internal_count=5071 4682 1745 2937 1464 1036
is_linear=0
shrinkage=0.198533


Tree=79
num_leaves=6
num_cat=0
split_feature=4 4 4 4 4
split_gain=2.2754e-05 2.55108e-05 4.71267e-05 1.72683e-05 8.25591e-06
threshold=0.90217391304347838 0.18478260869565219 0.55434782608695665 0.77173913043478282 -0.076086956521739121
decision_type=2 2 2 2 2
left_child=1 4 -3 -4 -1
right_child=-2 2 3 -5 -6
leaf_value=0 -0.00020091335254716493 0.0001707618126734934 -0.00010538295821050266 5.4435517856219986e-05 -6.150446064698052e-05
leaf_weight=407.84231963381171 17.238964349031448 93.205751666799188 46.605221513658762 31.387884344905615 81.044293412007391
leaf_count=2343 389 813 504 428 594
internal_value=0 0 7.55473e-05 0 0
internal_weight=0 660.085 171.199 77.9931 488.887
internal_count=5071 4682 1745 932 2937
is_linear=0
shrinkage=0.198533


Tree=80
num_leaves=7
num_cat=0
split_feature=4 4 4 4 4 4
split_gain=1.62862e-05 1.6751e-05 3.53927e-05 5.45638e-06 1.87732e-06 9.78897e-06
threshold=0.90217391304347838 0.18478260869565219 0.31521739130434789 -0.076086956521739121 0.77173913043478282 0.55434782608695665
decision_type=2 2 2 2 2 2
left_child=1 3 -3 -1 5 -4
right_child=-2 2 4 -5 -6 -7
leaf_value=0 -0.00016998782759557524 0.00022886810338976167 0 -5.0001243242140742e-05 4.5106677468865293e-05 -8.648767434289637e-05
leaf_weight=407.84231963381171 17.236046181060374 34.258023452013731 58.954960791394114 81.042543151415884 31.389036946929991 46.602386744692922
leaf_count=2343 389 281 532 594 428 504
internal_value=0 0 6.12168e-05 0 0 0
internal_weight=0 660.089 171.204 488.885 136.946 105.557
internal_count=5071 4682 1745 2937 1464 1036
is_linear=0
shrinkage=0.198533


Tree=81
num_leaves=6
num_cat=0
split_feature=4 4 4 4 4
split_gain=1.16569e-05 1.36834e-05 2.38295e-05 7.8812e-06 3.60644e-06
threshold=0.90217391304347838 0.18478260869565219 0.55434782608695665 0.77173913043478282 -0.076086956521739121
decision_type=2 2 2 2 2
left_child=1 4 -3 -4 -1
right_child=-2 2 3 -5 -6
leaf_value=0 -0.00014382136213932648 0.00012270938463650822 -7.0975517684287735e-05 3.7376892552935982e-05 -4.0651031806442877e-05
leaf_weight=407.84231963381171 17.233577561564744 93.216142041608691 46.600060353055596 31.389991932548583 81.041120297275484
leaf_count=2343 389 813 504 428 594
internal_value=0 0 5.5328e-05 0 0
internal_weight=0 660.09 171.206 77.9901 488.883
internal_count=5071 4682 1745 932 2937
is_linear=0
shrinkage=0.198533


Tree=82
num_leaves=7
num_cat=0
split_feature=4 4 4 4 4 4
split_gain=8.3436e-06 8.98867e-06 1.90786e-05 2.38342e-06 8.85156e-07 4.43976e-06
threshold=0.90217391304347838 0.18478260869565219 0.31521739130434789 -0.076086956521739121 0.77173913043478282 0.55434782608695665
decision_type=2 2 2 2 2 2
left_child=1 3 -3 -1 5 -4
right_child=-2 2 4 -5 -6 -7
leaf_value=0 -0.00012168293439591693 0.00016790265147283086 0 -3.3047294046997801e-05 3.0972168328013123e-05 -5.8248331594915441e-05
leaf_weight=407.84231963381171 17.231489127501845 34.26287430524826 58.958464715629816 81.039963306859136 31.390783365815878 46.59815123397857
leaf_count=2343 389 281 532 594 428 504
internal_value=0 0 4.48426e-05 0 0 0
internal_weight=0 660.093 171.21 488.882 136.947 105.557
internal_count=5071 4682 1745 2937 1464 1036
is_linear=0
shrinkage=0.198533


Tree=83
num_leaves=6
num_cat=0
split_feature=4 4 4 4 4
split_gain=5.9718e-06 7.26783e-06 1.2002e-05 3.59767e-06 1.57519e-06
threshold=0.90217391304347838 0.18478260869565219 0.55434782608695665 0.77173913043478282 -0.076086956521739121
decision_type=2 2 2 2 2
left_child=1 4 -3 -4 -1
right_child=-2 2 3 -5 -6
leaf_value=0 -0.00010294917449191597 8.7944674364677595e-05 -4.7801614725546852e-05 2.5662974150630377e-05 -2.686605298368281e-05
leaf_weight=407.84231963381171 17.22972235456109 93.223655620589852 46.596584509126842 31.391439360566437 81.039022763259709
leaf_count=2343 389 813 504 428 594
internal_value=0 0 4.03221e-05 0 0
internal_weight=0 660.093 171.212 77.988 488.881
internal_count=5071 4682 1745 932 2937
is_linear=0
shrinkage=0.198533


Tree=84
num_leaves=7
num_cat=0
split_feature=4 4 4 4 4 4
split_gain=4.27414e-06 4.77568e-06 1.04201e-05 1.04105e-06 4.17322e-07 2.01361e-06
threshold=0.90217391304347838 0.18478260869565219 0.31521739130434789 -0.076086956521739121 0.77173913043478282 0.55434782608695665
decision_type=2 2 2 2 2 2
left_child=1 3 -3 -1 5 -4
right_child=-2 2 4 -5 -6 -7
leaf_value=0 -8.709822329738236e-05 0.00012353775043621264 0 -2.1841152391296461e-05 2.1266206746929346e-05 -3.9228647554655728e-05
leaf_weight=407.84231963381171 17.228227653540671 34.266404382884502 58.960975768044591 81.038258242420852 31.39198265876621 46.595298795029521
leaf_count=2343 389 281 532 594 428 504
internal_value=0 0 3.26855e-05 0 0 0
internal_weight=0 660.095 171.215 488.881 136.948 105.556
internal_count=5071 4682 1745 2937 1464 1036
is_linear=0
shrinkage=0.198533


Tree=85
num_leaves=7
num_cat=0
split_feature=4 4 4 4 4 4
split_gain=3.05919e-06 3.81742e-06 6.56635e-06 6.88085e-07 2.86567e-07 1.35613e-06
threshold=0.90217391304347838 0.18478260869565219 0.31521739130434789 -0.076086956521739121 0.77173913043478282 0.55434782608695665
decision_type=2 2 2 2 2 2
left_child=1 3 -3 -1 5 -4
right_child=-2 2 4 -5 -6 -7
leaf_value=0 -7.3688557587194776e-05 0.00010211880065343927 0 -1.7756694449290381e-05 1.7622393607151329e-05 -3.2193687881759727e-05
leaf_weight=407.84231963381171 17.226963160559535 34.26810884848237 58.960975768044591 81.037636601366103 31.392433014698327 46.594243614003062
leaf_count=2343 389 281 532 594 428 504
internal_value=0 0 2.92227e-05 0 0 0
internal_weight=0 660.096 171.216 488.88 136.948 105.555
internal_count=5071 4682 1745 2937 1464 1036
is_linear=0
shrinkage=0.198533


Tree=86
num_leaves=6
num_cat=0
split_feature=4 4 4 4 4
split_gain=2.18951e-06 3.10298e-06 4.63667e-06 1.11e-06 4.54685e-07
threshold=0.90217391304347838 0.18478260869565219 0.55434782608695665 0.77173913043478282 -0.076086956521739121
decision_type=2 2 2 2 2
left_child=1 4 -3 -4 -1
right_child=-2 2 3 -5 -6
leaf_value=0 -6.2342113208346798e-05 5.5733478932813211e-05 -2.6419138362395891e-05 1.4601719896177743e-05 -1.4434359200197643e-05
leaf_weight=407.84231963381171 17.225893410854042 93.230493487790227 46.593377776443958 31.392806237563491 81.0371313681826
leaf_count=2343 389 813 504 428 594
internal_value=0 0 2.63466e-05 0 0
internal_weight=0 660.096 171.217 77.9862 488.879
internal_count=5071 4682 1745 932 2937
is_linear=0
shrinkage=0.198533


Tree=87
num_leaves=7
num_cat=0
split_feature=4 4 4 4 4 4
split_gain=1.56714e-06 2.03996e-06 3.52443e-06 3.00569e-07 1.35082e-07 6.15047e-07
threshold=0.90217391304347838 0.18478260869565219 0.31521739130434789 -0.076086956521739121 0.77173913043478282 0.55434782608695665
decision_type=2 2 2 2 2 2
left_child=1 3 -3 -1 5 -4
right_child=-2 2 4 -5 -6 -7
leaf_value=0 -5.274369817032834e-05 7.4752381563353117e-05 0 -1.1735868060944569e-05 1.20989243849277e-05 -2.1681068847216862e-05
leaf_weight=407.84231963381171 17.224988504312932 34.270286655053496 58.962567280977964 81.036720470525324 31.393115459941328 46.592667137272656
leaf_count=2343 389 281 532 594 428 504
internal_value=0 0 2.1362e-05 0 0 0
internal_weight=0 660.098 171.219 488.879 136.948 105.555
internal_count=5071 4682 1745 2937 1464 1036
is_linear=0
shrinkage=0.198533


Tree=88
num_leaves=6
num_cat=0
split_feature=4 4 4 4 4
split_gain=1.12158e-06 1.64551e-06 2.35127e-06 5.0696e-07 1.98697e-07
threshold=0.90217391304347838 0.18478260869565219 0.55434782608695665 0.77173913043478282 -0.076086956521739121
decision_type=2 2 2 2 2
left_child=1 4 -3 -4 -1
right_child=-2 2 3 -5 -6
leaf_value=0 -4.4621048775696127e-05 4.0050073614955804e-05 -1.7792436140254397e-05 1.0025840413106497e-05 -9.5420157904947216e-06
leaf_weight=407.84231963381171 17.224222890101373 93.233885085210204 46.592083987779915 31.39337154570967 81.036386615596712
leaf_count=2343 389 813 504 428 594
internal_value=0 0 1.91859e-05 0 0
internal_weight=0 660.098 171.219 77.9855 488.879
internal_count=5071 4682 1745 932 2937
is_linear=0
shrinkage=0.198533


Tree=89
num_leaves=7
num_cat=0
split_feature=4 4 4 4 4 4
split_gain=8.02803e-07 1.08188e-06 1.9139e-06 1.31258e-07 6.36955e-08 2.78962e-07
threshold=0.90217391304347838 0.18478260869565219 0.31521739130434789 -0.076086956521739121 0.77173913043478282 0.55434782608695665
decision_type=2 2 2 2 2 2
left_child=1 3 -3 -1 5 -4
right_child=-2 2 4 -5 -6 -7
leaf_value=0 -3.7751539584548793e-05 5.4848214991880521e-05 0 -7.7554537263648168e-06 8.3080565645061315e-06 -1.4601709275339207e-05
leaf_weight=407.84231963381171 17.22357523534447 34.271870464086533 58.963711127638817 81.036114793270826 31.393583931028843 46.591605360619724
leaf_count=2343 389 281 532 594 428 504
internal_value=0 0 1.55567e-05 0 0 0
internal_weight=0 660.099 171.221 488.878 136.949 105.555
internal_count=5071 4682 1745 2937 1464 1036
is_linear=0
shrinkage=0.198533


Tree=90
num_leaves=6
num_cat=0
split_feature=4 4 4 4 4
split_gain=5.74544e-07 8.6508e-07 1.18722e-06 2.31612e-07 8.67519e-08
threshold=0.90217391304347838 0.18478260869565219 0.55434782608695665 0.77173913043478282 -0.076086956521739121
decision_type=2 2 2 2 2
left_child=1 4 -3 -4 -1
right_child=-2 2 3 -5 -6
leaf_value=0 -3.1937218861799699e-05 2.8698757384375985e-05 -1.1982905960374276e-05 6.8847715373667798e-06 -6.3049997774267319e-06
leaf_weight=407.84231963381171 17.223027314990759 93.23633830063045 46.5912124812603 31.393759893253446 81.035894259810448
leaf_count=2343 389 813 504 428 594
internal_value=0 0 1.3911e-05 0 0
internal_weight=0 660.1 171.221 77.985 488.878
internal_count=5071 4682 1745 932 2937
is_linear=0
shrinkage=0.198533


Tree=91
num_leaves=7
num_cat=0
split_feature=4 4 4 4 4 4
split_gain=4.11239e-07 5.68989e-07 1.0535e-06 5.73456e-08 3.00367e-08 1.26508e-07
threshold=0.90217391304347838 0.18478260869565219 0.31521739130434789 -0.076086956521739121 0.77173913043478282 0.55434782608695665
decision_type=2 2 2 2 2 2
left_child=1 3 -3 -1 5 -4
right_child=-2 2 4 -5 -6 -7
leaf_value=0 -2.7020118823807373e-05 4.0363809926660481e-05 0 -5.1262037028699048e-06 5.7051825179338005e-06 -9.8331725642009579e-06
leaf_weight=407.84231963381171 17.222563778981566 34.273023016750813 58.964530434459448 81.03571480885148 31.393905548378825 46.590890362858772
leaf_count=2343 389 281 532 594 428 504
internal_value=0 0 1.12818e-05 0 0 0
internal_weight=0 660.1 171.222 488.878 136.949 105.555
internal_count=5071 4682 1745 2937 1464 1036
is_linear=0
shrinkage=0.198533


Tree=92
num_leaves=7
num_cat=0
split_feature=4 4 4 4 4 4
split_gain=2.94286e-07 4.50399e-07 6.58312e-07 3.78947e-08 2.06198e-08 8.51855e-08
threshold=0.90217391304347838 0.18478260869565219 0.31521739130434789 -0.076086956521739121 0.77173913043478282 0.55434782608695665
decision_type=2 2 2 2 2 2
left_child=1 3 -3 -1 5 -4
right_child=-2 2 4 -5 -6 -7
